var Parameters = {"Conv1/Weights": [[[[0.09013970196247101, -0.0493563637137413, -0.008272133767604828, 0.030127709731459618, -0.030385354533791542, 0.06504985690116882, -0.2536897659301758, -0.03934397175908089, -0.12365169078111649, 0.5466048121452332, -0.18974854052066803, 0.21618030965328217, 0.582316517829895, -0.02531396597623825, -0.06983621418476105, -0.301020085811615, -0.6657493710517883, -0.8183910250663757, -0.07718870788812637, -0.6013572812080383, 0.3971322178840637, -0.34406793117523193, -0.3832077085971832, -0.03216776251792908, -0.284991979598999, -0.04524063691496849, 0.2766963839530945, -0.08914890140295029, 0.17424140870571136, -0.06482529640197754, -0.0746929794549942, -0.05067135766148567]], [[-0.09258721768856049, 0.0402064323425293, -3.4242868423461914e-05, 0.4238632917404175, -0.1518229991197586, 0.3482182025909424, -0.8721387386322021, -0.10397065430879593, 0.30372560024261475, 0.5580965280532837, -0.17758527398109436, 0.07669416815042496, -0.4377955496311188, 0.08351805806159973, 0.010629508644342422, 0.2586885988712311, -0.617262065410614, 0.17710162699222565, 0.006995504256337881, -0.02823437564074993, -0.6709467172622681, -0.2690436542034149, 0.2242909073829651, -0.11928098648786545, -0.37501850724220276, -0.30274224281311035, -0.14747393131256104, -0.054873496294021606, 0.36793702840805054, -0.039308033883571625, -0.014277991838753223, 0.6091076731681824]], [[-0.04383302107453346, -0.140013188123703, 0.014733105897903442, 0.181732639670372, -0.051305897533893585, 0.0004585623391903937, -0.5914976596832275, -0.029058093205094337, 0.4207577109336853, 0.3199559450149536, 0.009266650304198265, -0.36791643500328064, -0.7172074913978577, -0.02256368100643158, 0.005970516707748175, 0.5663609504699707, -0.6958101391792297, 0.3020934760570526, -0.04743554815649986, 0.39639022946357727, -0.4678664207458496, -0.2017286717891693, 0.12533317506313324, 0.011317647062242031, -0.13866618275642395, 0.03517922759056091, -0.7065856456756592, -0.07759953290224075, -0.03520560264587402, -0.12420748174190521, 0.007846075110137463, 0.5155721306800842]], [[0.10903656482696533, -0.07722661644220352, -0.07749923318624496, -0.14256148040294647, -0.06897087395191193, -0.30076462030410767, -0.01121366024017334, -0.013120416551828384, 0.3683188259601593, -0.3537765443325043, 0.19034095108509064, -0.21853625774383545, -0.1041112095117569, -0.0709395781159401, 0.03472357988357544, 0.2831084132194519, -0.3995514512062073, 0.2159387171268463, -0.02602560631930828, 0.3164219558238983, -0.1473022997379303, -0.13569243252277374, -0.29113495349884033, -0.04971345514059067, 0.43393850326538086, -0.11249806731939316, -0.5461511611938477, -0.05229106545448303, 0.056263480335474014, -0.0131059680134058, 0.0075087337754666805, -0.2809186577796936]], [[-0.03227107599377632, -0.02639469876885414, -0.005118601024150848, -0.5430145859718323, -0.1202123612165451, -0.8164909482002258, 0.06904443353414536, -0.0627870038151741, 0.5225832462310791, -0.4527776539325714, 0.40052562952041626, -0.8274069428443909, -0.47218483686447144, 0.0019368454813957214, 0.012261254712939262, -0.2518845796585083, 0.16758650541305542, 0.21908074617385864, 0.025907408446073532, -0.49244266748428345, 0.3668035864830017, 0.10386926680803299, -0.43139374256134033, -0.10672617703676224, 0.18921461701393127, 0.14007695019245148, -0.09739409387111664, -0.012663152068853378, -0.11469104886054993, 0.014958992600440979, 0.004682775586843491, -0.3165314197540283]]], [[[0.2883569896221161, 0.007017932832241058, -0.019682317972183228, -0.09343376755714417, -0.08967801183462143, 0.352453351020813, -0.6879104375839233, -0.034797586500644684, -0.3260782063007355, -0.023779263719916344, -0.2940964996814728, 0.12577582895755768, 0.005529298912733793, -0.03520366549491882, -0.10886520892381668, -0.4903649091720581, -0.21852388978004456, -1.2821505069732666, -0.028526578098535538, -0.7378305792808533, 0.5283364653587341, -0.15435226261615753, -0.2627638578414917, -0.14846213161945343, -0.3054905831813812, -1.13025963306427, -0.15496641397476196, -0.1135035827755928, -0.20129060745239258, -0.11542131006717682, 0.016409454867243767, -0.9977319836616516]], [[0.3643014430999756, 0.054713472723960876, -0.014511622488498688, 0.25607505440711975, -0.007701778318732977, 0.2852899730205536, -0.7024165987968445, -0.1206473559141159, -0.10005247592926025, 0.15158410370349884, -0.47378426790237427, 0.04380939528346062, -0.6697643399238586, -0.013455845415592194, -0.045365601778030396, -0.07842180877923965, -0.4930228292942047, -0.2950595021247864, -0.019489293918013573, 0.37419599294662476, -0.06300833821296692, -0.0776650607585907, 0.30450132489204407, -0.04371111840009689, -0.4795660972595215, -0.9780514240264893, -0.49337074160575867, -0.013460108079016209, -0.2943342924118042, -0.1129644587635994, -0.07492072880268097, -0.011778363026678562]], [[0.3278336226940155, -0.05505099892616272, 0.07316930592060089, 0.25896185636520386, -0.008127163164317608, 0.06827995181083679, 0.33939194679260254, 0.01934843324124813, 0.15999402105808258, -0.18116331100463867, -0.059789739549160004, 0.15205815434455872, -0.1960502415895462, 0.0373736247420311, -0.08360264450311661, -1.0228275060653687, -0.15571928024291992, -0.17897585034370422, -0.04612980782985687, 0.4369572699069977, -0.5083127617835999, -0.34780097007751465, -0.07666686922311783, -0.038210779428482056, 0.19683438539505005, -1.1526095867156982, -0.4426639676094055, -0.023367803543806076, -0.691693902015686, 0.01311510894447565, -0.006515004672110081, 0.31527259945869446]], [[0.4931883215904236, -0.0056399209424853325, -0.010362207889556885, 0.25894781947135925, -0.05327253416180611, -0.6357171535491943, 0.4187179207801819, 0.004876356106251478, 0.33983537554740906, -0.44141706824302673, 0.10650800168514252, -0.37108007073402405, -0.21787118911743164, 0.01579069346189499, 0.02643996849656105, -0.9978604912757874, 0.037471216171979904, 0.4176160991191864, 0.013032611459493637, 0.11097027361392975, -0.6730268001556396, -0.3994292914867401, -0.326014906167984, -0.06028853729367256, 0.435146301984787, -1.065187692642212, 0.3602055013179779, -0.11693570017814636, -0.45520633459091187, -0.013427411206066608, 0.029819302260875702, 0.19093020260334015]], [[0.5339069366455078, -0.0915946215391159, -0.07081139832735062, -0.21542567014694214, -0.06358767300844193, -0.6441080570220947, 0.29402923583984375, -0.10924771428108215, 0.10208030045032501, -0.21541118621826172, 0.27400097250938416, -0.5235112309455872, -0.12423286586999893, -0.05659563094377518, -0.050578802824020386, -0.7572498321533203, 0.5562347173690796, -0.7383238077163696, -0.04446806013584137, -0.9243103265762329, -0.2890029549598694, 0.26323211193084717, -0.6548854112625122, -0.09566924721002579, -0.29628533124923706, -0.8187357783317566, 0.5357690453529358, -0.016408316791057587, -0.03256789222359657, -0.02479627914726734, 0.011638191528618336, 0.22513940930366516]]], [[[0.0025404130574315786, 0.050470978021621704, 0.013204246759414673, -0.04538843780755997, -0.01490546204149723, 0.23535865545272827, -0.8512284755706787, -0.03451560065150261, -1.1250998973846436, -0.6315259337425232, -0.006974251940846443, 0.4625479280948639, 0.03665575012564659, -0.029557541012763977, -0.04742111265659332, -0.5050002932548523, -0.46887344121932983, -0.3431593179702759, -0.018523914739489555, -0.7384597063064575, 0.4565841257572174, -0.06835562735795975, -0.3389444351196289, -0.04017098993062973, -0.6200724840164185, -0.967011034488678, -0.12325278669595718, -0.031359560787677765, -0.18535465002059937, -0.13541530072689056, 0.02465812861919403, -0.37644127011299133]], [[0.06329913437366486, -0.01270962506532669, 0.0290377214550972, 0.01931220106780529, -0.11501903086900711, 0.28790193796157837, -0.24661323428153992, -0.08445707708597183, -1.0266705751419067, -0.5683982372283936, -0.8928177356719971, 0.3995232582092285, -0.46798473596572876, 0.03170417249202728, -0.0409361831843853, -0.7912173867225647, -0.49314871430397034, -0.696738600730896, -0.10712414234876633, 0.09102561324834824, 0.813393235206604, -0.15445831418037415, -0.11343219131231308, -0.1348862200975418, -0.2544342875480652, 0.11501867324113846, 0.09222057461738586, -0.08690200746059418, -0.7513866424560547, -0.06069064512848854, -0.06071390584111214, -0.23778511583805084]], [[0.13396987318992615, -0.03769746795296669, -0.07897347956895828, 0.504118025302887, -0.013924525119364262, -0.5291866064071655, 0.5443747043609619, 0.03566216304898262, -0.44096940755844116, -0.7629900574684143, -0.027393903583288193, 0.040151264518499374, -0.17207249999046326, -0.06594278663396835, -0.10802475363016129, -0.6535727381706238, -0.42815056443214417, -0.9678547382354736, -0.09744124859571457, 0.17558400332927704, 0.3670617341995239, -0.2705315053462982, -0.30296215415000916, -0.04832695052027702, 0.43717896938323975, -0.06913407146930695, 0.5895596146583557, -0.02726711332798004, -0.48751208186149597, -0.015287072397768497, 0.013029426336288452, -0.025358179584145546]], [[0.06411166489124298, -0.01917473040521145, -0.06995022296905518, 0.44780367612838745, -0.12732484936714172, -1.1740033626556396, 0.5969322919845581, -0.1309618204832077, -0.5795810222625732, -0.20830635726451874, 0.3894670605659485, -1.076082706451416, -0.09732440114021301, 0.03909089416265488, -0.1084686815738678, 0.03543667495250702, -0.1929897516965866, -0.45880186557769775, -0.09444448351860046, -0.4811793863773346, -0.3444342315196991, -0.6547638177871704, -0.18446074426174164, 0.005721699446439743, 0.41847577691078186, -0.08054354041814804, 0.7580482363700867, -0.06187063828110695, -0.24971750378608704, -0.061275821179151535, -0.07067301869392395, 0.09622850269079208]], [[0.4077761769294739, -0.026065643876791, 6.854534149169922e-06, -0.0340610072016716, -0.11149842292070389, -0.24263910949230194, 0.355890691280365, -0.09790714830160141, -0.5070903897285461, -0.2519271969795227, 0.18785162270069122, -0.15739025175571442, -0.11018847674131393, 0.005194909870624542, -0.1170380488038063, 0.14542649686336517, 0.16765929758548737, -0.8860089778900146, 0.0026621578726917505, -0.8410953283309937, -0.28238216042518616, 0.6023330688476562, -0.3375011384487152, -0.15299837291240692, -0.530027449131012, -0.9866229295730591, 0.10533037036657333, -0.00829041562974453, 0.2551974058151245, -0.13973689079284668, -0.09559304267168045, 0.07897941768169403]]], [[[-0.544807493686676, -0.005791217088699341, -0.04671068862080574, 0.08727379143238068, -0.13025858998298645, -0.25027433037757874, -1.101377248764038, -0.058153972029685974, -0.11392947286367416, -0.2773033082485199, -0.03783576935529709, 0.5238562822341919, -0.9037394523620605, -0.05713795870542526, -0.0469646155834198, -1.040264368057251, -0.09821609407663345, 0.5677911639213562, -0.1179286316037178, -0.7051696181297302, -0.2867978811264038, -0.17487464845180511, -0.3235875368118286, -0.0045877061784267426, -0.7218807935714722, -0.5925856828689575, 0.31637412309646606, -0.1388731300830841, 0.33869239687919617, -0.08241931349039078, -0.0575585775077343, 0.41003093123435974]], [[-0.16464056074619293, -0.06870651990175247, 0.007446497678756714, -0.18155549466609955, -0.017396239563822746, -0.6562446355819702, -0.31542614102363586, -0.004885923583060503, -0.3292388916015625, -0.2319164127111435, -0.857617199420929, -0.1747492551803589, -0.11260974407196045, 0.0030361786484718323, -0.06679698824882507, -0.25639453530311584, -0.5279912352561951, -0.0535380057990551, 0.013016816228628159, -0.35811489820480347, 0.5948686599731445, -0.23819568753242493, -0.44622930884361267, -0.04611450806260109, -0.14307336509227753, 0.48614150285720825, 0.37302377820014954, -0.07360726594924927, 0.3582930564880371, -0.0695110335946083, -0.0018540032906457782, -1.1286733150482178]], [[-0.1562410593032837, -0.06074311211705208, -0.009315699338912964, 0.3019709289073944, -0.020974481478333473, -1.6417862176895142, 0.10292403399944305, -0.061917755752801895, -0.8334707021713257, -0.3952905833721161, 0.043691352009773254, -0.36351463198661804, -0.3080229163169861, -0.015958987176418304, -0.05921420454978943, 0.39232033491134644, -0.8589904308319092, -0.25865423679351807, -0.10683679580688477, -0.8410521745681763, 0.5630490183830261, -0.22774218022823334, -0.31287655234336853, -0.06745106726884842, 0.4566933214664459, 0.40031716227531433, 0.276629775762558, -0.037226416170597076, 0.40570399165153503, -0.08851885050535202, -0.04393975809216499, -0.6256605982780457]], [[-0.2514410614967346, -0.12210393697023392, -0.01854536682367325, 0.4297002851963043, -0.1078827977180481, -0.5366660952568054, 0.17070238292217255, -0.061990171670913696, -0.8025305271148682, -0.5975508093833923, 0.10446184128522873, -1.2882280349731445, -0.2993409037590027, -0.06970074027776718, -0.04721745848655701, 0.42342397570610046, -0.5894414782524109, -0.7275123596191406, -0.10096105933189392, -0.5489320755004883, 0.1737958788871765, -0.6737474203109741, -0.23619602620601654, -0.06084215268492699, 0.3061639666557312, 0.21203941106796265, 0.033695247024297714, -0.06879489868879318, 0.49801206588745117, -0.11820271611213684, -0.08535324037075043, -0.18773244321346283]], [[-0.2534812092781067, -0.08077523857355118, 0.0564986914396286, -0.05945759639143944, 0.016152141615748405, 0.41418159008026123, -0.0698743537068367, -0.03273913264274597, -0.37232252955436707, -0.6575083136558533, 0.3866397440433502, 0.13907751441001892, -0.3693913519382477, -0.025606222450733185, -0.001946489792317152, 0.31919074058532715, -0.8925527334213257, -0.036551039665937424, -0.10300283879041672, -0.5167887210845947, -0.08612146228551865, 0.4992646276950836, -0.280591756105423, -0.03423578292131424, -0.5354012250900269, -0.753088653087616, -0.4852764308452606, -0.13405251502990723, 0.1699097454547882, -0.056936074048280716, -0.028369449079036713, -0.3505677580833435]]], [[[-0.08177178353071213, 0.01770710200071335, -0.08306236565113068, -0.01264645904302597, -0.1060984879732132, -0.9474391341209412, -1.036819338798523, -0.00967015977948904, -0.10933168232440948, 0.36860617995262146, -0.07080749422311783, 0.03261145204305649, -0.18132396042346954, -0.012240476906299591, -0.0727066919207573, -1.2163972854614258, 0.05923881754279137, 0.3198980391025543, -0.12185252457857132, -0.6331061124801636, -0.6268318891525269, 0.03685469925403595, -0.12731458246707916, -0.08425922691822052, -0.11430298537015915, -0.8219837546348572, -0.09495782107114792, -0.004084312357008457, 0.16805940866470337, -0.03804967552423477, -0.02547176368534565, 0.0570487454533577]], [[-0.18967850506305695, 0.02450026012957096, -0.05927512049674988, -0.4211764931678772, -0.07458234578371048, -1.080220341682434, -1.3005013465881348, 0.010776245035231113, 0.08063388615846634, 0.3329676687717438, -0.5624732375144958, -0.7459875345230103, 0.17632026970386505, 0.08274750411510468, -0.06472882628440857, -0.24278925359249115, -0.3518635928630829, 0.12243054807186127, 0.005153866019099951, -0.49687710404396057, -0.07505929470062256, 0.2942073345184326, -0.4869838058948517, -0.1517561674118042, 0.27732962369918823, 0.5112594962120056, -0.29013311862945557, -0.0963212102651596, 0.22930996119976044, -0.07735034078359604, 0.002196484711021185, 0.043031275272369385]], [[-0.38632670044898987, -0.033953312784433365, -0.06506650149822235, -0.023256108164787292, -0.10922309756278992, -0.29456645250320435, -1.4758485555648804, -0.10429196059703827, 0.5322048664093018, 0.19853690266609192, -0.4373941719532013, -0.6436845660209656, 0.03980439156293869, -0.08331236988306046, -0.11984783411026001, 0.12851884961128235, -0.19100475311279297, -0.013697485439479351, 0.005864493548870087, -1.0050147771835327, 0.18722675740718842, 0.03464828059077263, -0.39587122201919556, -0.11178939044475555, 0.1914461851119995, 0.657589316368103, -0.29022663831710815, -0.08856534957885742, 0.2789390981197357, -0.039231669157743454, -0.01410718448460102, 0.2313365489244461]], [[-0.5490010380744934, -0.04660562798380852, -0.014691159129142761, 0.4646793603897095, -0.13372649252414703, 0.28694140911102295, -0.9681276679039001, -0.10614558309316635, 0.49885398149490356, 0.09543395787477493, -0.04652445763349533, -0.411838561296463, 0.0823047012090683, 0.025190971791744232, 0.006112039089202881, 0.11435742676258087, -0.38066619634628296, -0.2684214115142822, 0.022161273285746574, -0.08458471298217773, 0.08660250902175903, -1.4110965728759766, -0.16448447108268738, -0.08207463473081589, 0.045625317841768265, 0.46179884672164917, -0.8123531341552734, -0.05844341591000557, 0.03318072110414505, -0.03979305177927017, -0.08090554177761078, -0.5026648044586182]], [[-0.14173786342144012, -0.06347702443599701, -0.08142078667879105, 0.20109091699123383, -0.10887336730957031, 0.39659741520881653, -0.5678372383117676, -0.013362301513552666, 0.19199436902999878, -0.5618366599082947, 0.49811267852783203, 0.38822147250175476, -0.053076889365911484, 0.05352981388568878, -0.12284591794013977, 0.11736289411783218, -1.1005403995513916, -0.5377744436264038, -0.11154751479625702, 0.27905964851379395, 0.04198925569653511, -0.16621553897857666, -0.24810531735420227, -0.04547879844903946, -0.4644104242324829, -0.35899731516838074, -0.21260203421115875, -0.06287895143032074, -0.35148894786834717, -0.06738870590925217, -0.0038149533793330193, -0.6050800681114197]]]], "Conv1/Biases": [-0.14833112061023712, -0.21803615987300873, -0.1554972380399704, -0.9813435077667236, -0.20138293504714966, -0.06387697160243988, -0.0030652752611786127, -0.20282791554927826, -0.096426822245121, -0.18423984944820404, -0.31299659609794617, -0.1634238064289093, -0.039673443883657455, -0.2185344099998474, -0.17222680151462555, 0.04719550907611847, 0.1567896604537964, 0.09673187136650085, -0.1532604992389679, 0.0818234458565712, -0.5102304816246033, -0.012111510150134563, 0.10382164269685745, -0.04649176821112633, -0.3432431221008301, 0.12177366018295288, -0.14739884436130524, -0.15141882002353668, -0.32207393646240234, -0.24889308214187622, -0.2427452802658081, -0.025367815047502518], "Conv2/Weights": [[[[-0.046793922781944275, -0.44200730323791504, -0.20657840371131897, -0.05027517303824425, -0.060443706810474396, -0.174916610121727, 0.021328333765268326, -0.09702377021312714, -0.18144671618938446, 0.04758739843964577, -0.10790599882602692, -0.09003295749425888, 0.016141656786203384, -0.23181287944316864, 0.16539259254932404, -0.3775128424167633, 0.014043306931853294, -0.05877965688705444, -0.0981948971748352, -0.03291729837656021, -0.04730517789721489, -0.38547858595848083, -0.0139302434399724, 0.1485845148563385, -0.1622278094291687, -0.07264145463705063, -0.14203377068042755, -0.3169163763523102, 0.5507545471191406, 0.006337117403745651, -0.010395489633083344, -0.07987546920776367, 0.22985278069972992, 0.5029440522193909, -0.01990535669028759, -0.1843123435974121, 0.5851032733917236, 0.1259518563747406, -0.001114045036956668, 0.007000889629125595, -0.014992741867899895, -0.01578795537352562, 0.13351014256477356, -0.2737902104854584, -0.5864683985710144, 0.26721373200416565, -0.040520958602428436, -0.08535366505384445, 0.026506969705224037, 0.055560167878866196, -0.08593763411045074, -0.3866077661514282, 0.15164819359779358, 0.37793195247650146, -0.3122747540473938, -0.03809601068496704, -0.07243523746728897, 0.23955713212490082, -0.1084517240524292, -0.10583329200744629, -0.23010863363742828, 0.6281235814094543, -0.5462973117828369, 0.0968775525689125], [-0.019941389560699463, 0.029365207999944687, 0.07212430983781815, 0.024697195738554, -0.019465424120426178, -0.015927709639072418, 0.04647697135806084, 0.027368735522031784, 0.00502941757440567, -0.041240144520998, -0.023303795605897903, 0.01441175863146782, -0.03955885022878647, -0.023641228675842285, 0.042628731578588486, 0.044578757137060165, 0.019898127764463425, -0.030827462673187256, -0.013324439525604248, -0.032218001782894135, -0.012019909918308258, -0.03803325816988945, 0.0007093660533428192, 0.10371629893779755, -0.04643600061535835, -0.04656694456934929, 0.009903084486722946, -0.01912872865796089, 0.03546246141195297, 0.0003181472420692444, -0.03835713863372803, 0.013502370566129684, 0.04931962862610817, 0.024792898446321487, 0.04294793680310249, 0.015461052767932415, 0.034143973141908646, 0.05462593957781792, -0.012309134006500244, 0.013097789138555527, -0.007846355438232422, -0.038242828100919724, -0.02365299127995968, -0.006447255611419678, -0.00011023133993148804, -0.0066456906497478485, 0.017615769058465958, -0.004088439047336578, 0.055586569011211395, -0.04763568565249443, 0.02197328582406044, 0.010707426816225052, 0.0440729521214962, -0.026369130238890648, 0.02405780926346779, -0.010805059224367142, -0.009737670421600342, -0.02888207510113716, -0.030949940904974937, -0.00010567903518676758, 0.03858271613717079, 0.02462438866496086, 0.10001486539840698, -0.0454137809574604], [-0.005324862897396088, 0.002408944070339203, -0.03254423290491104, -0.029371177777647972, 0.0189102403819561, -0.0019774213433265686, 0.03296114131808281, -0.04505603387951851, 0.047117654234170914, 0.04939759895205498, -0.04085235670208931, -0.007350824773311615, 0.0027761943638324738, 0.03653612360358238, 0.0054048895835876465, -0.04163999482989311, -0.008581805974245071, 0.04265369102358818, -0.043813612312078476, 0.016390886157751083, 0.0006699785590171814, 0.009057510644197464, -0.00901428610086441, -0.03004007413983345, 0.04797964170575142, -0.029176998883485794, 0.021271158009767532, 0.03073132410645485, -0.039218317717313766, -0.04298695549368858, -0.012776553630828857, 0.002751372754573822, 0.02064898982644081, 0.04046240076422691, 0.024072181433439255, -0.04304473474621773, 0.04218229278922081, -0.030569493770599365, -0.04926342889666557, -0.01927976682782173, 0.025338713079690933, -0.021299971267580986, 0.01846853271126747, -0.01873152330517769, 0.007052171975374222, -0.02543398179113865, 0.038606856018304825, 0.0064958445727825165, 0.02037734165787697, 0.04286618158221245, 0.012880410999059677, 0.015614975243806839, -0.002163805067539215, -0.03957637399435043, 0.043641794472932816, -0.02990323305130005, -0.0020538456737995148, -0.01219186931848526, 0.0285843126475811, 0.04427475854754448, 0.008260488510131836, 0.02673378959298134, -0.030969202518463135, 0.01677311584353447], [-0.11867384612560272, -0.33649930357933044, -0.16609793901443481, -0.03516431897878647, -0.12264618277549744, -0.13844391703605652, -0.0277956984937191, -0.07275676727294922, -0.11901278048753738, 0.03995941951870918, -0.04520484432578087, -0.06751707941293716, -0.04524872452020645, -0.3293211758136749, -0.4448823630809784, -0.31125473976135254, -0.04420376196503639, -0.03851592540740967, -0.24006600677967072, -0.0171625018119812, -0.11975623667240143, -0.16900216042995453, -0.20628249645233154, -0.031115252524614334, -0.32201871275901794, -0.11738211661577225, -0.26685968041419983, -0.2057630717754364, 0.2736557722091675, 0.03410860523581505, -0.010803986340761185, -0.44533151388168335, -0.007276040967553854, -0.41797441244125366, -0.044388048350811005, -0.37980538606643677, -0.26388806104660034, 0.2614254653453827, 0.28626343607902527, -0.01824888586997986, -0.05902460962533951, -0.032542962580919266, -0.5079596042633057, -0.186619371175766, -0.3730274438858032, -0.5623034238815308, -0.04444083198904991, -0.08274949342012405, -0.1112038865685463, -0.004837989807128906, -0.032079972326755524, -0.296671986579895, -0.20448562502861023, 0.2753753364086151, -0.21483410894870758, 0.00294654443860054, -0.30705133080482483, 0.06689658761024475, -0.013798335567116737, -0.026232939213514328, 0.14553102850914001, -0.05590696260333061, -0.35080477595329285, 0.13785015046596527], [0.009434890002012253, 0.10105858743190765, -0.07815346121788025, -0.01236029714345932, 0.022167576476931572, -0.06932538747787476, 0.07159730792045593, -0.02333201840519905, 0.012634621933102608, -0.020325636491179466, -0.08655980974435806, 0.045317769050598145, 0.00885772705078125, 0.018196333199739456, -0.03831477090716362, -0.0394633412361145, 0.028318312019109726, 0.015101436525583267, 0.06996992230415344, -0.036399029195308685, -0.014210445806384087, 0.08356916159391403, 0.060286443680524826, 0.04974941164255142, -0.043403055518865585, -0.09654875844717026, 0.01789521612226963, 0.03750533610582352, 0.03183254227042198, -0.021753549575805664, -0.01662447303533554, 0.056684061884880066, -0.02704453654587269, -0.07977490872144699, 0.055063486099243164, 0.12026121467351913, 0.04599759355187416, -0.08345329016447067, -0.018444370478391647, 0.009542368352413177, -0.009589124470949173, 0.05306893214583397, -0.07123833149671555, -0.01288461685180664, 0.08900109678506851, -0.009874224662780762, -0.04499148577451706, 0.06664542108774185, 0.07114850729703903, 0.05296921730041504, 0.039754245430231094, -0.0586962029337883, 0.04747043922543526, -0.016581643372774124, 0.04619067162275314, 0.044448528438806534, 0.023513417690992355, 0.008315552026033401, -0.029302487149834633, 0.027888599783182144, 0.09355676919221878, 0.046411868184804916, -0.09754332154989243, -0.030426278710365295], [-0.1642865091562271, -0.44195568561553955, -0.0527208149433136, -0.10168661177158356, -0.030751895159482956, 0.16593098640441895, -0.011744656600058079, 0.006863773800432682, -0.19902992248535156, -0.21024103462696075, -0.020770272240042686, -0.014431331306695938, -0.0506926104426384, 0.07611166685819626, 0.5524407029151917, -0.3010213375091553, -0.046995896846055984, -0.17109818756580353, 0.014805729500949383, -0.0709730014204979, -0.05294147878885269, 0.016947371885180473, -0.05701792612671852, 0.02110830508172512, -0.14779716730117798, 0.015300949104130268, -0.032836370170116425, -0.9398278594017029, 0.466937392950058, 0.004784394055604935, -0.056431740522384644, 0.15129224956035614, 0.010398730635643005, 0.5435900688171387, -0.09557952731847763, -0.366703063249588, -0.10213641077280045, 0.009887045249342918, -0.44524839520454407, -0.09925460815429688, -0.296057790517807, -0.10693702846765518, -0.309522420167923, 0.25532418489456177, -0.0348009392619133, -0.03135818988084793, -0.08142615854740143, -0.08200880885124207, -0.14079391956329346, -0.022815098986029625, -0.10580870509147644, -0.34640440344810486, -0.5895089507102966, 0.3171786665916443, 0.26251569390296936, -0.016696494072675705, -0.0331573560833931, -0.6104364991188049, 0.006057962775230408, 0.004429718945175409, -0.6915938258171082, -0.33156734704971313, 0.43806400895118713, -0.12387415021657944], [-0.10892913490533829, 0.415853887796402, -0.012391369789838791, -0.05378182232379913, -0.02005990408360958, 0.414289265871048, -0.04611043632030487, -0.06943698227405548, -0.2229975163936615, -0.2205507755279541, -0.095065638422966, -0.08230755478143692, -0.07992037385702133, 0.6289306282997131, 0.5955026149749756, -0.2993735373020172, 0.013769867829978466, -0.1670493334531784, 0.49254152178764343, -0.08341847360134125, -0.03292473778128624, 0.2327018529176712, -0.0847744345664978, 0.14849291741847992, 0.9069564938545227, 0.012977869249880314, 0.038501590490341187, 0.17295023798942566, 0.7819105386734009, 0.025340106338262558, -0.05754072219133377, 0.22794748842716217, -0.02128514088690281, 0.16811849176883698, -0.031356535851955414, 0.0686446949839592, -0.2945237457752228, -0.5302236676216125, -1.2019973993301392, -0.07077479362487793, 0.04629002511501312, -0.043789155781269073, -0.4705030620098114, 0.312417209148407, 0.20166471600532532, -1.1209508180618286, -0.06933446228504181, -0.023936526849865913, -0.0023014333564788103, 0.08411389589309692, -0.0926627665758133, -0.6761975884437561, 0.7597020268440247, 0.015912843868136406, 0.03939623758196831, -0.08200336247682571, -0.06624817848205566, 0.500795304775238, -0.048736684024333954, -0.7157710194587708, -0.35031113028526306, -0.2677001655101776, -0.8710655570030212, -0.17231889069080353], [0.0015087835490703583, 0.043335385620594025, 0.027947673574090004, -0.026249481365084648, 0.005536540411412716, 0.11340823769569397, 0.05995479226112366, -0.0772705078125, -0.05800479277968407, -0.009274624288082123, -0.0880877822637558, -0.05440385639667511, 0.046447861939668655, -0.051785342395305634, -0.08028054982423782, -0.04680159315466881, -0.017179638147354126, 0.02123245969414711, -0.003515632590278983, 0.035749975591897964, 0.03249337896704674, 0.10669515281915665, 0.08520191162824631, 0.038021814078092575, -0.004637669771909714, 0.03089139051735401, -0.06773600727319717, 0.01327005960047245, -0.043941907584667206, 0.0045670755207538605, -0.007025659084320068, 0.036459531635046005, -0.08290190249681473, -0.12303319573402405, 0.058526769280433655, -0.061562422662973404, 0.033992256969213486, 0.04060925543308258, -0.03749943524599075, 0.04092494025826454, 0.031198706477880478, 0.06553362309932709, -0.08770912885665894, 0.04574308171868324, 0.08788114786148071, -0.011049460619688034, -0.09839257597923279, -0.0011787315597757697, -0.0544220432639122, -0.08845733106136322, 0.02865496650338173, -0.05387949198484421, 0.006978534162044525, -0.017993401736021042, 0.04092033579945564, -0.010196816176176071, -0.07615820318460464, -0.028574589639902115, -0.11922547221183777, -0.028969336301088333, 0.09053466469049454, 0.08667665719985962, 0.12127929925918579, -0.0568387396633625], [-0.22024580836296082, 0.13640907406806946, -0.19001717865467072, 0.017314862459897995, -0.20690831542015076, -0.8985266089439392, -0.09130951017141342, -0.05558121204376221, -0.36193811893463135, -0.03792060166597366, -0.012094616889953613, 0.09854826331138611, -0.04823038727045059, -0.6332659125328064, 0.7642286419868469, -0.4736354947090149, -0.0949411541223526, 0.018781866878271103, -0.719071090221405, 0.01450449600815773, 0.056792691349983215, -0.24676890671253204, -0.05193255841732025, 0.549846351146698, 0.28197813034057617, 0.06380962580442429, -0.006619165185838938, -0.0665653720498085, 0.8752087950706482, 0.009253740310668945, 0.035613369196653366, 0.2463226020336151, 0.32136839628219604, 0.8084002733230591, 0.0837840884923935, 0.31756436824798584, 0.044065069407224655, 0.5001605153083801, -0.050575267523527145, 0.03798492252826691, -0.09728988260030746, -0.004367433488368988, -0.3681677281856537, -1.052775502204895, -0.30268731713294983, -0.4911671578884125, 0.07913320511579514, -0.044206149876117706, -0.18175825476646423, 0.07366234064102173, 0.006057571619749069, 0.16866791248321533, 0.18526464700698853, -0.21978938579559326, 0.15171116590499878, 0.04586302116513252, -0.07706120610237122, -0.306922048330307, 0.09241603314876556, -0.5203221440315247, -0.7330881357192993, -0.02443837560713291, -0.7926666140556335, -0.1545627862215042], [-0.10714299976825714, -0.6417832374572754, -0.14035429060459137, 0.008182741701602936, -0.27624914050102234, -0.1819474697113037, 0.00540149537846446, -0.15070480108261108, -0.34684184193611145, 0.0321185328066349, -0.02571694925427437, -0.019299089908599854, -0.04015963152050972, 0.7184906601905823, -0.39076152443885803, -0.08563735336065292, -0.18850077688694, -0.04258941486477852, 0.3571932017803192, -0.013766862452030182, -0.01818571239709854, -0.5336650013923645, -0.01852480322122574, -0.3750651478767395, -0.08486341685056686, -0.01241828128695488, 0.01430198922753334, -0.21262463927268982, 0.22956444323062897, 0.02107112482190132, 0.009264063090085983, 0.07681576162576675, 0.7407428026199341, 0.19832703471183777, -0.04405612871050835, -0.020417895168066025, 2.656922561072861e-06, -0.819307804107666, -0.6902406811714172, 0.02448379062116146, -0.5815432667732239, -0.0011669836239889264, -1.3407858610153198, -0.9989559650421143, -0.7467294335365295, 0.7091465592384338, -0.027783751487731934, 0.059502553194761276, -0.03503867983818054, -0.04633655026555061, 0.04114120081067085, -0.5841460824012756, -0.06006859615445137, 0.26167139410972595, 0.7708513736724854, -0.02664637565612793, 0.02715780958533287, 0.3017915189266205, -0.07253711670637131, -0.1830052137374878, -0.07317221909761429, 0.06637842208147049, -0.24216997623443604, 0.096706822514534], [-0.1927647888660431, 0.4096955955028534, -0.06979746371507645, -0.029073894023895264, -0.08614254742860794, 0.3938368558883667, -0.053278688341379166, -0.04042254760861397, -0.10693959146738052, -0.020667405799031258, 0.019453847780823708, -0.020522749051451683, -0.0431380532681942, -0.1265452355146408, -0.41248059272766113, -0.07215971499681473, -0.048753127455711365, -0.10262611508369446, -0.0878271833062172, 0.022393178194761276, 0.05781976878643036, -0.2099154144525528, -0.07659411430358887, -0.018766727298498154, 0.12552128732204437, 0.002710503526031971, -0.12745797634124756, 0.11662124842405319, 0.6090348362922668, 0.020762454718351364, -0.03163810819387436, -0.008944826200604439, -0.4833298325538635, -0.658473789691925, -0.06259287893772125, -0.3730289340019226, -0.36713770031929016, 0.20743581652641296, -0.11917077749967575, -0.03577716276049614, -0.21689683198928833, -0.07448200136423111, -0.6051031947135925, -0.2777089774608612, 0.36730852723121643, -0.6025420427322388, -0.010242284275591373, -0.18792301416397095, 0.014856980182230473, -0.04573122039437294, -0.06875979155302048, -0.2977418303489685, 0.1603638380765915, 0.15543368458747864, -0.8824216723442078, -0.03391934931278229, 0.00041301603778265417, 0.3995276391506195, -0.021215125918388367, -0.22288298606872559, 0.18329375982284546, -1.1529849767684937, -0.11751823127269745, -0.12394469976425171], [-0.2523151636123657, 0.07282033562660217, -0.032820094376802444, -0.08309757709503174, -0.009800375439226627, -0.08871151506900787, -0.07317996770143509, -0.03836894780397415, -0.11525185406208038, -0.22293618321418762, -0.0901147648692131, -0.047888971865177155, -0.008833039551973343, -0.2561378479003906, 0.27113595604896545, -0.13367104530334473, -0.021476663649082184, -0.15164847671985626, -0.26553142070770264, -0.0485735759139061, -0.07284130156040192, -0.22615019977092743, -0.053973808884620667, -0.056684840470552444, -0.533452033996582, 0.015326705761253834, -0.014558526687324047, -0.46516817808151245, 0.11584702879190445, -0.027870357036590576, -0.08624166995286942, 0.3600068986415863, -0.43103599548339844, 0.7611629962921143, -0.049249373376369476, -0.5943845510482788, 0.03685632348060608, -0.020960640162229538, -0.3066241443157196, -0.054151590913534164, -0.22217461466789246, -0.06952130049467087, -0.553515613079071, -0.5068870782852173, 0.02477155439555645, 0.4447139799594879, -0.056783147156238556, -0.08485502004623413, -0.04769568145275116, -0.07316412031650543, -0.022083142772316933, -0.3919147849082947, -0.8846514821052551, 0.2113196849822998, -0.36475521326065063, -0.01529750507324934, -0.10785392671823502, 0.1706925481557846, -0.0816369503736496, -0.4584413170814514, -0.380712628364563, -0.25775009393692017, 0.3355954885482788, -0.10934733599424362], [-0.20432943105697632, -0.3758806884288788, -0.09550321102142334, -0.10817447304725647, -0.05163094028830528, -0.18627578020095825, -0.007802048698067665, -0.06110395863652229, -0.023075027391314507, 0.007907532155513763, -0.06383326649665833, -0.06581577658653259, -0.09345398098230362, 0.261480450630188, 0.06462739408016205, -0.47649240493774414, -0.025884857401251793, -0.0882539227604866, 0.24531109631061554, -0.03453686460852623, -0.050797004252672195, 0.0038743966724723577, 0.05416252464056015, 0.052332695573568344, 0.36492720246315, -0.009277370758354664, -0.07446277141571045, -0.15105953812599182, -0.9065161943435669, -0.030694831162691116, -0.04504077881574631, 0.20210795104503632, -0.024188119918107986, -0.07494103908538818, -0.03191903233528137, -0.1446799784898758, -0.3033963143825531, -0.0024681829381734133, -0.48103445768356323, -0.08317646384239197, -0.11970052123069763, -0.011375704780220985, -0.14303049445152283, -0.1365814357995987, 0.18823055922985077, 0.0008621185552328825, -0.06684838235378265, -0.08299072831869125, -0.06361514329910278, -0.041753869503736496, -0.061212651431560516, -0.09294497966766357, -0.4661913216114044, 0.3705918788909912, 0.24451585114002228, -0.09326686710119247, -0.0589289627969265, -0.6680915951728821, -0.030061369761824608, -0.2566436231136322, -0.5526254773139954, -0.12171032279729843, 0.057526763528585434, 0.0035673677921295166], [0.04633687809109688, -0.014257967472076416, 0.02835618332028389, -0.02422734536230564, -0.022862602025270462, 0.041700173169374466, -0.02142965793609619, -0.011739503592252731, 0.03576716408133507, 0.04057302698493004, 0.0013811811804771423, -0.010985411703586578, 0.005064439028501511, 0.02225407585501671, -0.04394134506583214, 0.041705917567014694, -0.0025790557265281677, 0.0400664247572422, 0.022862497717142105, 0.03489607945084572, 0.04951095953583717, -0.013129912316799164, 0.0218241848051548, 0.013910282403230667, 0.04433581605553627, -0.021423256024718285, -0.03457053750753403, -0.025192320346832275, 0.016140270978212357, -0.03737114742398262, -0.013474918901920319, -0.009336460381746292, 0.04413864389061928, -0.03553994745016098, -0.02768498659133911, -0.004989933222532272, 0.03749033436179161, -0.015114404261112213, 0.0011308081448078156, -0.016180969774723053, 0.013758037239313126, -0.015317164361476898, -0.046651195734739304, 0.016840849071741104, 0.03799562528729439, -0.021872783079743385, -0.023151492699980736, 0.04663882032036781, 0.02883174642920494, 0.014814380556344986, 0.027335550636053085, -0.023874759674072266, -0.005399666726589203, -0.008906066417694092, 0.014476548880338669, -0.011259771883487701, 0.03341839089989662, 0.04391505941748619, 0.0004579313099384308, 0.028768423944711685, 0.025130320340394974, 0.03101814165711403, -0.046748388558626175, -0.013801895081996918], [0.0323428250849247, -0.033578936010599136, 0.05170011147856712, -0.07298483699560165, 0.04078955203294754, -0.028960857540369034, 0.01933174952864647, 0.005342377815395594, -0.04893927276134491, -0.04059331491589546, -0.02217443659901619, 0.09645417332649231, -0.010104168206453323, 0.005722672212868929, 0.02579985000193119, -0.03396328538656235, 0.08480276167392731, 0.04061681404709816, -0.11958758533000946, -0.0016731023788452148, 0.0412997268140316, 0.08672662824392319, 0.042120277881622314, 0.06784693151712418, 0.010536111891269684, 0.06567620486021042, 0.011244621127843857, 0.05000060796737671, 0.07999991625547409, -0.025541890412569046, 0.028225604444742203, 0.00360350520350039, -0.09127670526504517, -0.009276267141103745, 0.05964509770274162, 0.10352501273155212, 0.02912731096148491, -0.03652791306376457, -0.031178226694464684, -0.007857181131839752, -0.02037050761282444, -0.04292754828929901, -0.08117660880088806, -0.0008336305618286133, 0.046464335173368454, 0.018021713942289352, 0.029630405828356743, -0.0922335684299469, 0.055992044508457184, -0.06730834394693375, 0.034132231026887894, -0.01267576776444912, -0.036398887634277344, -0.023349761962890625, 0.04050780087709427, 0.013392005115747452, 0.1030535101890564, 0.037540215998888016, 0.050207071006298065, -0.03088681772351265, 0.13318303227424622, 0.11982467770576477, -0.03336527198553085, -0.017083153128623962], [-0.16669237613677979, 0.4016728401184082, -0.0643332377076149, -0.09151441603899002, -0.033083364367485046, 0.17058882117271423, -0.008005510084331036, -0.03476472944021225, -0.060412775725126266, -0.17767873406410217, -0.020553937181830406, -0.06382215023040771, -0.07803688943386078, 0.5817075967788696, 0.6931571364402771, -0.4038022756576538, -0.025897419080138206, -0.09093073010444641, 0.4325398802757263, -0.05826210230588913, -0.01840021088719368, 0.27167820930480957, 0.05092236399650574, -0.05611572042107582, -0.18248270452022552, -0.03303378075361252, -0.04474693909287453, 0.05540352314710617, -1.0282090902328491, -0.04683948680758476, -0.0919341892004013, 0.0021232236176729202, -0.03709486499428749, 0.5304895043373108, -0.05990638583898544, 0.35667654871940613, -0.07415352016687393, -0.15515202283859253, -0.89676433801651, -0.0844004675745964, -0.26902157068252563, -0.016326218843460083, -0.7708278894424438, 0.2210012972354889, 0.04970983788371086, 0.03154446557164192, -0.02244969643652439, -0.0022599324584007263, -0.12828440964221954, -0.02625363878905773, -0.07452023774385452, -0.1398734748363495, 0.1572185903787613, 0.20472493767738342, -0.018514124676585197, -0.004888990428298712, -0.07639576494693756, 0.12243092805147171, -0.06827444583177567, 0.22325138747692108, -0.6113894581794739, -0.7104883193969727, 0.24826079607009888, -0.30770570039749146], [-0.14010243117809296, 0.4568411707878113, -0.09116101264953613, -0.0911526158452034, -0.00022911225096322596, 0.16857948899269104, -0.03959726169705391, -0.013341592624783516, -0.2518619894981384, -0.22589921951293945, -0.01751338690519333, -0.0647382140159607, -0.0688500702381134, 0.3814840018749237, 0.30542895197868347, -0.11673964560031891, -0.04838978126645088, -0.1263182908296585, 0.24438302218914032, -0.06102794408798218, -0.09005941450595856, 0.3376212418079376, -0.07710448652505875, 0.23585918545722961, 1.0139188766479492, -0.05474364385008812, 0.0068907225504517555, 0.33996185660362244, 0.03315573185682297, 0.023457910865545273, -0.019295796751976013, 0.11816304177045822, -0.32376259565353394, 0.2490828037261963, -0.03348934277892113, 0.11293846368789673, -0.33129405975341797, -0.13225425779819489, -0.7206680774688721, -0.0511227585375309, -0.21031302213668823, -0.09762146323919296, -0.5850383639335632, -0.11771249026060104, 0.29732903838157654, 0.01857806369662285, -0.061821117997169495, -0.016708847135305405, -0.1650027334690094, -0.0911128893494606, -0.03931497037410736, -0.4984283149242401, 0.4771173894405365, -0.17003339529037476, 0.2058405727148056, -0.08292927592992783, -0.04969858005642891, 0.23298610746860504, -0.08854104578495026, -0.1651763617992401, -0.6334783434867859, -0.1629452258348465, -0.7508426904678345, -0.12949706614017487], [-0.12177544832229614, 0.2881358563899994, -0.05665058270096779, -0.08110878616571426, -0.10307417809963226, -0.2147972285747528, -0.07950909435749054, -0.0673573687672615, -0.4829762876033783, -0.1839996874332428, -0.10025891661643982, -0.007585607934743166, -0.03777121752500534, 0.6019300818443298, 0.25378304719924927, 0.3135075569152832, -0.017272623255848885, -0.11232942342758179, 0.36745744943618774, -0.05459903925657272, -0.10825983434915543, 0.14271846413612366, -0.027325237169861794, 0.39549508690834045, 0.6998584270477295, -0.0012389454059302807, 0.03082101233303547, -0.05507327616214752, -0.006511610466986895, -0.0284719355404377, -0.01490441057831049, 0.3804766833782196, 0.2247673124074936, -0.44148385524749756, -0.05793370306491852, -0.2459706813097, -0.06542734801769257, -0.05525544658303261, -0.06443598121404648, -0.0800943672657013, -0.3709559738636017, -0.0724419429898262, -0.9632376432418823, -0.45970770716667175, -0.3488176465034485, -0.13284987211227417, -0.01801317371428013, -0.01823163963854313, -0.14046621322631836, -0.04725436121225357, -0.07212319225072861, -0.49463170766830444, 0.6014560461044312, 0.6976104378700256, 0.6504958271980286, -0.06259046494960785, -0.042626045644283295, 0.3885791003704071, -0.02112513780593872, 0.4699263572692871, -0.9209162592887878, 0.4053242802619934, -0.05910910293459892, -0.20462138950824738], [0.04590301588177681, -0.06947794556617737, -0.0012434148229658604, -0.07013352960348129, 0.006188509985804558, 0.07918693870306015, 0.06975845247507095, -0.0583920031785965, -0.04779016971588135, 0.010087419301271439, -0.09142442047595978, 0.011637991294264793, 0.04954061284661293, 0.036036863923072815, -0.08911901712417603, -0.03212137520313263, -0.02777712047100067, -0.06470833718776703, -0.01647801510989666, -0.03590495511889458, 0.07667778432369232, -0.013467088341712952, -0.10598117113113403, 0.0014493993949145079, -0.004595302045345306, -0.05895736813545227, 0.003935668617486954, 0.06096437945961952, 0.03415827080607414, -0.012679077684879303, 0.011040724813938141, -0.06836232542991638, -0.04173268750309944, -0.11709664762020111, 0.04110955446958542, -0.10263264179229736, -0.021693719550967216, 0.036101341247558594, -0.043779972940683365, -0.049745287746191025, 0.001902557909488678, 0.09981392323970795, -0.0671137347817421, -0.027264714241027832, -0.02254025824368, -0.01599985361099243, -0.024879969656467438, 0.011640810407698154, 0.06604651361703873, 0.09515053033828735, -0.004084624350070953, -0.04010618105530739, 0.007237754762172699, 0.03957085683941841, 0.06247640773653984, -0.04319802671670914, 0.054591234773397446, -0.0531773567199707, -0.02677585743367672, -0.024602055549621582, 0.08912064135074615, 0.045242808759212494, -0.025132006034255028, -0.05478864163160324], [-0.18494953215122223, 0.3945688009262085, -0.02831052802503109, -0.057218652218580246, -0.06471721827983856, -0.161653071641922, 0.018433960154652596, -0.06184176728129387, -0.09399854391813278, -0.17978450655937195, -0.022862249985337257, -0.044188257306814194, -0.09599252045154572, 0.34643417596817017, 0.06278829276561737, 0.041915085166692734, -0.05135292932391167, -0.09069685637950897, 0.3930131793022156, -0.06554258614778519, -0.1012771874666214, 0.34908294677734375, -0.0240017082542181, -0.13438305258750916, 0.5808314085006714, 0.0036512520164251328, -0.0607517808675766, 0.0598500519990921, 0.5603087544441223, 0.03565684333443642, -0.052587125450372696, 0.37215110659599304, -0.06891961395740509, 0.3044387102127075, -0.07063622027635574, -0.05306926369667053, -0.21603316068649292, -0.10366711020469666, -0.7722136974334717, -0.01327419187873602, -0.09437943994998932, -0.01379474624991417, -0.5195452570915222, -0.12813566625118256, -0.17671972513198853, -0.11916103214025497, -0.04058884084224701, -0.061760663986206055, -0.060091257095336914, -0.07453300803899765, -0.08173378556966782, -0.46292105317115784, 0.14951618015766144, 0.418475866317749, 0.25187069177627563, -0.09368215501308441, -0.07638250291347504, -0.30679750442504883, -0.050207141786813736, 0.12547768652439117, -0.3842678666114807, 0.29191717505455017, 0.24845419824123383, -0.11353282630443573], [-0.11512249708175659, -0.0012045959010720253, 0.02038697898387909, 0.04402724280953407, -0.007436991203576326, -0.7931440472602844, -0.011367874220013618, -0.006840142421424389, -0.014060595072805882, -0.04050469398498535, -0.08956544101238251, 0.0020096779335290194, -0.048180174082517624, 0.11732446402311325, -1.0001055002212524, -0.07264251261949539, -0.07492398470640182, -0.04644162580370903, -0.22773824632167816, 0.02419719472527504, -0.09126965701580048, 0.1383177638053894, -0.095732182264328, -0.6796309947967529, -0.41069748997688293, -0.09676080197095871, -0.1486852616071701, 0.4207009971141815, 0.15288046002388, -0.04575332626700401, 0.00606149435043335, -0.28224629163742065, 0.5822102427482605, -0.17531070113182068, -0.010138400830328465, -0.4162907898426056, -0.0755213126540184, 0.16165192425251007, 0.543194055557251, 0.009593790397047997, -0.25377506017684937, 0.007720708381384611, -0.2152116298675537, -0.028775108978152275, 0.03684261068701744, -0.5755789279937744, -0.05581791326403618, -0.029689056798815727, -0.12285847961902618, -0.07439541816711426, -0.017033148556947708, -0.3573397099971771, -0.000308678689179942, -0.3201015889644623, -0.3203468322753906, 0.004917789250612259, -0.12186089903116226, 0.25708454847335815, 0.030445529147982597, -0.7009546756744385, -0.029580581933259964, 0.35264691710472107, -0.6663113236427307, 0.05197026580572128], [-0.1640409231185913, 0.3454738259315491, -0.013314210809767246, -0.0972302034497261, -0.006783089600503445, 0.40013742446899414, -0.0360238254070282, -0.02124614641070366, 0.03494240343570709, -0.203677698969841, -0.05113350227475166, -0.08087066560983658, -0.05046512559056282, 0.04205750301480293, 0.3071540892124176, -0.27229201793670654, -0.07446908205747604, -0.12459365278482437, -0.1169932410120964, -0.0503615066409111, -0.03777594491839409, 0.11228068172931671, -0.03678327053785324, 0.007398206274956465, 0.8211891055107117, 0.0014809651765972376, 0.006299671251326799, -0.271579384803772, 0.2336035519838333, 0.046622347086668015, -0.07579827308654785, 0.0957716703414917, -0.011050266213715076, 0.27615007758140564, -0.09281271696090698, 0.4519103765487671, -0.27260318398475647, -0.2267516702413559, -1.0269794464111328, -0.0599994920194149, -0.18956707417964935, -0.09238819032907486, -0.5578661561012268, 0.10950858145952225, 0.3183993399143219, 0.12561902403831482, -0.029870549216866493, -0.010094257071614265, -0.12827946245670319, -0.025044497102499008, -0.09931458532810211, -0.2572304904460907, 0.24431569874286652, -0.0016382469329982996, 0.10025759786367416, -0.06806501001119614, -0.06354011595249176, 0.42624878883361816, -0.06268459558486938, -0.15695515275001526, -0.16426202654838562, -0.08152554929256439, -0.24885496497154236, -0.06743133068084717], [-0.15397138893604279, 0.7143083214759827, -0.06700167804956436, -0.032779570668935776, -0.017023742198944092, 0.028202835470438004, 0.00381318386644125, -0.009395319037139416, -0.19147422909736633, -0.14879210293293, -0.0212573055177927, -0.014460738748311996, -0.0860542356967926, 0.3646281957626343, 0.16883158683776855, 0.00676155649125576, 0.00367203657515347, -0.11202969402074814, 0.3359748423099518, -0.026470327749848366, -0.04704390838742256, 0.13974764943122864, -0.06561335921287537, -0.038939330726861954, 0.5906592011451721, -0.052768953144550323, -0.07125911861658096, 0.2819295823574066, -0.5286762714385986, -0.008481323719024658, -0.04992057383060455, 0.4349170923233032, 0.05757945403456688, 0.1723964661359787, -0.00652566272765398, 0.08608002215623856, -0.3170333206653595, -0.1337350457906723, -0.844208300113678, -0.027827739715576172, -0.20805005729198456, -0.07468046993017197, -0.7235828042030334, 0.13938026130199432, 0.05155868083238602, 0.12066203355789185, -0.0483657568693161, -0.024805398657917976, -0.15239307284355164, -0.08169695734977722, -0.049048829823732376, -0.42020946741104126, 0.1968132108449936, -0.06632867455482483, 0.23619498312473297, -0.037283264100551605, -0.08848804980516434, 0.31744006276130676, -0.023007452487945557, 0.16518186032772064, -0.5118594169616699, 0.0908202975988388, 0.05262139439582825, -0.03720628097653389], [-0.029501939192414284, 0.08787944912910461, -0.05746742710471153, -0.0909126028418541, -0.015210875310003757, 0.07554586976766586, -0.028951840475201607, -0.07138608396053314, -0.051306769251823425, 0.03253791108727455, -0.07259422540664673, -0.04002445191144943, 0.015016842633485794, 0.011470419354736805, -0.03931589052081108, -0.029103100299835205, -0.008492193184792995, -0.08091483265161514, 0.03255465254187584, 0.04555380716919899, -0.08786732703447342, 0.07332854717969894, 0.07222764939069748, 0.01489087101072073, -0.008392967283725739, -0.05952366441488266, -0.03438074141740799, 0.03776561841368675, -0.0606120340526104, 0.01002277061343193, 0.002989482134580612, 0.1125371977686882, -0.08072102814912796, -0.05395768582820892, 0.02563280425965786, 0.028215931728482246, 0.0399315245449543, -0.06603959202766418, -0.06013256311416626, -0.026278531178832054, 0.03164729103446007, 0.0376516655087471, -0.08929132670164108, 0.034326937049627304, -0.03635299950838089, -0.04614666849374771, -0.06442113220691681, -0.051341086626052856, -0.07205777615308762, 0.08645869791507721, -0.04011887311935425, -0.09888781607151031, -0.03106623888015747, 0.040610913187265396, -0.0016747788758948445, 0.0005546212196350098, -0.09329189360141754, -0.043123792856931686, -0.05560284107923508, -0.0051457881927490234, -0.08958017081022263, -0.13031241297721863, -0.09414006024599075, -0.05514620244503021], [-0.2159331738948822, 0.15302613377571106, -0.018278684467077255, -0.1046564131975174, -0.09873412549495697, -0.0329706110060215, -0.0020684583578258753, -0.08302868902683258, 0.2772592604160309, -0.032322563230991364, 0.0742567852139473, -0.06882712244987488, 0.014282438904047012, -0.21971392631530762, -0.860442042350769, -0.45227524638175964, -0.061307188123464584, -0.0333748459815979, -0.13520440459251404, 0.04419804736971855, 0.05539359152317047, -0.40877169370651245, -0.043617699295282364, -0.3185288906097412, -0.42669206857681274, -0.06138323247432709, -0.08053983002901077, 0.20766021311283112, -0.40538594126701355, -0.048806190490722656, -0.007275186479091644, -0.27020561695098877, -0.4605974555015564, -0.6153466701507568, -0.010144569911062717, -1.0067404508590698, -0.26580461859703064, 0.06626873463392258, -0.4713047742843628, -0.056266698986291885, -0.05865688994526863, -0.06547573953866959, -0.4907028377056122, -0.8619645237922668, -0.004786212928593159, 0.30836814641952515, -0.015387274324893951, -0.08966575562953949, -0.03171157091856003, -0.09615333378314972, -0.04395350441336632, -0.17512212693691254, 0.09674592316150665, 0.6534512042999268, -0.005240955855697393, -0.04910688474774361, -0.04325389862060547, -0.6049529314041138, -0.07535934448242188, 0.06767427176237106, 0.2799677550792694, -0.6977673172950745, -0.0456729494035244, 0.12573109567165375], [-0.11490979045629501, 0.24971692264080048, -0.000626290449872613, -0.08352832496166229, 0.010952454060316086, -0.2598024010658264, -0.03810529783368111, -0.03649279847741127, -0.2501607835292816, -0.20253707468509674, -0.010250445455312729, 0.005890915170311928, -0.07326514273881912, 0.7379351258277893, 0.09342958778142929, -0.7369402050971985, -0.03775758668780327, -0.13758128881454468, 0.41386571526527405, -0.013937043026089668, -0.030109932646155357, 0.07370802015066147, -0.021782394498586655, 0.0739569440484047, 0.24042585492134094, -0.027281172573566437, 0.010084651410579681, 0.637267529964447, -1.274385690689087, 0.003222178667783737, -0.01038998831063509, 0.573786199092865, 0.46515578031539917, 0.13784518837928772, -0.05533061921596527, 0.07818333059549332, -0.07372323423624039, -0.270538330078125, -0.7700707316398621, -0.01543392427265644, -0.3658996522426605, -0.09368392825126648, -0.4820103049278259, -0.20515742897987366, 0.1974172741174698, 0.13420312106609344, -0.03969136252999306, -0.07158637046813965, -0.20174768567085266, -0.051456350833177567, -0.06832361221313477, -0.6233060359954834, 0.21397927403450012, 0.6920556426048279, 0.38303911685943604, -0.020799467340111732, -0.05587891861796379, -0.0874343141913414, -0.030255243182182312, 0.32317593693733215, -1.7098441123962402, -0.013444394804537296, 0.9043335914611816, -0.2652546167373657], [-0.20279322564601898, 0.20104260742664337, -0.2558887004852295, -0.10047291219234467, -0.008108636364340782, 0.5367481708526611, 0.06935922801494598, -0.08915232121944427, -0.1273416429758072, -0.023597775027155876, -0.0927823930978775, -0.08868980407714844, -0.02589101903140545, -0.2168276160955429, 0.0699385404586792, -0.7445127964019775, -0.0005613638204522431, -0.11466489732265472, -0.458612322807312, -0.005540691316127777, 0.08242626488208771, 0.17305698990821838, 0.03300891071557999, -0.34884214401245117, -0.2134617120027542, -0.03310677409172058, -0.15447506308555603, 0.43586546182632446, -0.09974022954702377, 0.03495581075549126, -0.011376071721315384, -0.013689136132597923, 0.48073914647102356, 0.14522723853588104, -0.07992290705442429, -0.2435968667268753, -0.10989949107170105, 0.020461346954107285, 0.08582903444766998, 0.040784940123558044, -0.12498833984136581, 0.04830118268728256, -0.5180023312568665, -0.007423176895827055, -0.4986603260040283, 0.7543928623199463, -0.06072334945201874, -0.06988433748483658, 0.05851554498076439, 0.025494499132037163, -0.021702826023101807, -0.12272664159536362, 0.10943415015935898, 0.16206473112106323, -0.60123610496521, -0.0026206597685813904, 0.018426965922117233, -0.030889280140399933, -0.03298565372824669, -0.5000601410865784, 0.18785534799098969, -0.2883428633213043, -0.2569792866706848, 0.11825136840343475], [-0.016484569758176804, 0.046520836651325226, 0.09254133701324463, -0.09896744042634964, 0.0921034887433052, -0.024235794320702553, 0.012394297868013382, -0.028287719935178757, -0.07597938925027847, 0.010270785540342331, 0.0880725085735321, 0.06958890706300735, -0.015033341944217682, 0.028019491583108902, -0.0515473410487175, 0.03144505247473717, 0.013092830777168274, -0.012495636940002441, -0.08575744181871414, 0.02739652618765831, 0.012926180846989155, 0.07343678176403046, 0.07532861828804016, 0.07343342155218124, -0.026491915807127953, 0.05429444462060928, 0.01115993782877922, -0.015001483261585236, 0.10508064180612564, 0.024809908121824265, 0.04943610355257988, 0.011015690863132477, -0.013483523391187191, -0.03732001408934593, 0.03650517761707306, -0.012099136598408222, 0.029151592403650284, 0.06511790305376053, -0.0446896068751812, -0.02800307236611843, -0.01175009086728096, -0.019008545204997063, -0.023808136582374573, 0.030246082693338394, 0.03759302198886871, -0.00441354513168335, -0.09280145913362503, -0.1085217222571373, 0.012392857111990452, 0.014278012327849865, -0.04914180189371109, -0.0781574472784996, 0.02976938709616661, -0.01671140268445015, 0.06450442969799042, -0.011033307760953903, 0.0177545715123415, -0.03543497249484062, -0.08482010662555695, -0.033449068665504456, 0.0343838669359684, 0.028290271759033203, 0.03134565427899361, -0.10300883650779724], [-0.2690446376800537, -0.18099631369113922, -0.23019686341285706, 0.03614609315991402, -0.3144378364086151, -0.19221831858158112, -0.07268061488866806, -0.10526489466428757, 0.0442035086452961, -0.04212907701730728, -0.1043265089392662, -0.02653472125530243, -0.01653178595006466, 0.26633086800575256, -0.5103191137313843, -0.048823580145835876, -0.1454913169145584, 0.025640573352575302, -0.31125757098197937, 0.04340914264321327, -0.15486398339271545, 0.47639748454093933, -0.09834251552820206, 0.07221245020627975, -0.21929620206356049, -0.04302181303501129, -0.056402623653411865, 0.09716419130563736, -0.4232371747493744, -0.01831141859292984, 0.02114250883460045, -0.12456972897052765, 0.5562952160835266, -0.3589382767677307, 0.0035941600799560547, 0.17474159598350525, 0.14656586945056915, 0.41570377349853516, -0.2648957073688507, -0.07700878381729126, -0.270043283700943, 0.03182649984955788, -0.12580034136772156, -0.1617935597896576, -0.20771196484565735, -0.07025336474180222, 0.08738566935062408, -0.15893274545669556, -0.1871301531791687, -0.037139397114515305, 0.019104648381471634, -0.20459556579589844, 0.04440891742706299, 0.06758018583059311, 1.0905683040618896, -0.0013853535056114197, -0.1292228400707245, 0.2741120457649231, -0.10191554576158524, -0.21315234899520874, -0.2664297819137573, 0.670083224773407, -0.07095325738191605, -0.09685377776622772], [0.006752572953701019, -0.014989793300628662, 0.061129387468099594, 0.004591953009366989, 0.018395138904452324, 0.04670354351401329, -0.009473695419728756, -0.06688009947538376, 0.003795228898525238, -0.03278996795415878, -0.04385162517428398, 0.02922865003347397, 0.037813667207956314, 0.009575508534908295, 0.03803366795182228, -0.04195471853017807, -0.0018321983516216278, -0.016880951821804047, -0.04828052595257759, 0.030063476413488388, 0.04669274017214775, -0.03127949312329292, 0.03630467876791954, 0.04231298342347145, 0.011205542832612991, 0.039824988692998886, 0.002173103392124176, 0.03765852376818657, -0.08934077620506287, 0.023401547223329544, -0.024705935269594193, -0.05381835252046585, -0.020642375573515892, -0.04668882116675377, 0.04470236226916313, 0.04494128003716469, 0.028957102447748184, -0.039706744253635406, 0.020051252096891403, -0.048709072172641754, -0.043904054909944534, 0.04329479858279228, -0.01829315349459648, 0.048128191381692886, 0.034566912800073624, -0.009968720376491547, 0.03304312005639076, -0.01613910123705864, -0.05452216416597366, 0.04659619554877281, -0.0065140500664711, 0.06033822521567345, 0.004905533045530319, -0.01944958046078682, -0.009090565145015717, 0.018578197807073593, 0.07061982899904251, 0.04137176647782326, 0.03383311629295349, -0.027898525819182396, 0.008773088455200195, 0.08477319031953812, -0.08155996352434158, 0.04010302945971489], [-0.0429520383477211, 0.0350642092525959, -0.03127742558717728, 0.03587043657898903, 0.050612542778253555, 0.010344337671995163, -0.01412799023091793, 0.07641304284334183, 0.0063722506165504456, 0.03689703717827797, -0.01906287670135498, 0.030811764299869537, -0.03547893837094307, 0.030378369614481926, -0.03299698978662491, -0.007545411586761475, 0.095121830701828, 0.0018973462283611298, 0.03734005615115166, 0.004865370690822601, -0.028974538668990135, 0.08820328116416931, -0.01864553801715374, -0.08559787273406982, 0.013135183602571487, -0.06388553977012634, 0.08630350977182388, -0.03652315214276314, -0.09594670683145523, -0.03527071326971054, 0.022329065948724747, 0.04991557449102402, 0.08093806356191635, -0.04354960843920708, -0.020211482420563698, -0.05258198827505112, -0.02383129671216011, 0.01739470288157463, 0.08522389829158783, -0.04741045460104942, 0.019286934286355972, 0.05943575128912926, -0.05367901176214218, 0.01383071020245552, -0.06474261730909348, 0.02357906475663185, 0.08000596612691879, 0.03219631686806679, -0.05717391520738602, 0.08004867285490036, -0.03032320737838745, 0.031861208379268646, 0.0481194369494915, -0.03276412561535835, 0.0813097357749939, -0.017803825438022614, -0.025249052792787552, -0.04635051637887955, -0.03042365424335003, -0.03396878391504288, -0.008562896400690079, 0.029888376593589783, 0.018687168136239052, 0.02474827878177166], [-0.03855490684509277, 0.874812126159668, -0.1282198429107666, -0.036679673939943314, -0.06929030269384384, -0.334634006023407, 0.023657890036702156, -0.04729703441262245, -0.32406923174858093, 0.01992328278720379, -0.026687536388635635, -0.07951752841472626, -0.0043200477957725525, 0.47544485330581665, -0.5010406970977783, 0.12485499680042267, -0.008329479955136776, 0.010706055909395218, -0.3578236997127533, 0.008265934884548187, -0.015115005895495415, -0.5905442833900452, -0.013811243698000908, -0.06137866899371147, 0.632868230342865, -0.0016109764110296965, -0.058093827217817307, -0.1584981083869934, 0.843748927116394, -0.04926183447241783, -0.020046938210725784, -0.6552153825759888, 0.7795153856277466, -0.03580518439412117, -0.036071937531232834, -0.5526225566864014, 0.4206145703792572, 0.11866592615842819, -0.15293458104133606, 0.017834842205047607, 0.02178959734737873, 0.026804527267813683, 0.019550928846001625, -0.6080374121665955, 0.03455153480172157, -0.026124218478798866, -0.09072953462600708, -0.13857990503311157, 0.006546495947986841, -0.013241348788142204, -0.025703871622681618, -0.10083098709583282, 0.09746722131967545, 0.16188278794288635, -0.09705282747745514, 0.03429992124438286, -0.03432474285364151, 0.2950461506843567, -0.04287067800760269, -0.262736439704895, -0.37770503759384155, 0.38747671246528625, -0.4103047549724579, 0.03258443623781204]], [[-0.04048273339867592, -0.3867809474468231, -0.11663725972175598, -0.040957819670438766, -0.05656781420111656, -0.6405856609344482, 0.06489602476358414, -0.05548373609781265, -0.33739757537841797, -0.22686810791492462, -0.09234575182199478, -0.07257838547229767, -0.001987022813409567, -0.3570251166820526, -0.5380005836486816, -0.10800371319055557, -0.023422833532094955, -0.05279047042131424, -0.2819496691226959, 0.027493085712194443, -0.1018919050693512, -0.14085012674331665, -0.050444941967725754, 0.32882654666900635, 0.4014332592487335, -0.05184066668152809, -0.11343547701835632, -0.5365097522735596, 0.36989808082580566, -0.04972896724939346, -0.03661166876554489, -0.16199053823947906, 0.3430914282798767, 0.18083661794662476, -0.05398636683821678, -0.40994325280189514, 0.28391149640083313, -0.369853675365448, 0.12072107940912247, 0.03563703969120979, -0.12984034419059753, -0.03310473635792732, -0.08839397877454758, -0.5608830451965332, 0.08473756164312363, -0.0036852925550192595, -0.022142883390188217, -0.14217855036258698, -0.13031111657619476, -0.10646889358758926, -0.06954426318407059, -0.6008375287055969, 0.18055832386016846, 0.09435071796178818, -0.5511752367019653, -0.0075867255218327045, 0.05144140496850014, -0.4318069815635681, -0.12057145684957504, 0.3036823868751526, 0.1873895525932312, 0.19805000722408295, 0.17822164297103882, 0.07556027919054031], [0.02387985959649086, -0.04631456360220909, -0.009852539747953415, -0.022575581446290016, -0.08900001645088196, 0.00027076154947280884, 0.03798272833228111, -0.04891852289438248, -0.003278423100709915, -0.0021499991416931152, -0.04447636753320694, 0.03165645897388458, -0.000974513590335846, 0.07485168427228928, -0.008236289024353027, 0.028710436075925827, 0.007808554917573929, 0.01868642494082451, -0.024185260757803917, 0.025063876062631607, -0.07784751057624817, 0.020713139325380325, 0.034046340733766556, 0.026028279215097427, -0.015463877469301224, 0.10387759655714035, 0.035127487033605576, -0.03214293718338013, 0.012154839001595974, -0.029581261798739433, -0.047558724880218506, 0.032240528613328934, -0.015590245835483074, 0.04338747262954712, 0.04951213672757149, -0.04804157093167305, -0.03472720459103584, -0.05563393607735634, -0.07746168226003647, -0.04410147666931152, 0.0237472765147686, -0.019727027043700218, -0.08842802792787552, -0.0033224932849407196, -0.04224201664328575, -0.03026188723742962, 0.007544923573732376, 0.019878219813108444, 0.014717008918523788, 0.03568539395928383, 0.04899938032031059, -0.042291510850191116, 0.005681313574314117, 0.04373348876833916, -0.04295441508293152, 0.0022338517010211945, -0.030119432136416435, -0.019614076241850853, 0.000541985034942627, -0.03495123237371445, -0.016005374491214752, 0.001979481428861618, 0.03579520061612129, -0.0690091997385025], [0.027423355728387833, -0.023435700684785843, -0.009832669049501419, 0.026761505752801895, -0.016910873353481293, 0.04976460710167885, -0.047500502318143845, -0.03907432407140732, -0.007193099707365036, 0.006641663610935211, 0.004795540124177933, -0.0031830184161663055, -0.015570759773254395, -0.021310150623321533, 0.043818239122629166, -0.027808809652924538, -0.04124593734741211, -0.013502847403287888, 0.04649031534790993, -0.049674537032842636, 0.029355082660913467, -0.015004944056272507, 0.017434384673833847, 0.005881655961275101, 0.010392963886260986, 0.0219680555164814, 0.016254153102636337, 0.024987470358610153, 0.020653579384088516, -0.04306216165423393, 0.03719906881451607, -0.049588728696107864, -0.03819403797388077, -0.03547030687332153, -0.02949281968176365, 0.028164122253656387, -0.016571927815675735, -0.007005192339420319, 0.009605813771486282, -0.04948774725198746, -0.03299086168408394, -0.015194665640592575, 0.0018018260598182678, -0.0251054298132658, -0.044754814356565475, -0.02091285027563572, -0.040219105780124664, 0.02137308195233345, 0.022389087826013565, 0.035317134112119675, -0.03686145693063736, -0.013888787478208542, -0.01686631515622139, -0.007414422929286957, -0.04121764749288559, -0.021467221900820732, -0.01918158493936062, -0.0004436485469341278, 0.0078016407787799835, 0.047628190368413925, 0.000993587076663971, -0.006393514573574066, -0.018680106848478317, -0.008192919194698334], [-0.18995167315006256, -0.14482080936431885, -0.09311757981777191, -0.03583178669214249, -0.11115691810846329, 0.20122915506362915, -0.017547184601426125, -0.04150247201323509, -0.2599373757839203, -0.14851264655590057, -0.026431091129779816, -0.057867664843797684, -0.0898657813668251, 0.24840886890888214, -0.22886131703853607, -0.5415730476379395, -0.11185996979475021, -0.08395978808403015, -0.3184463381767273, -0.014139525592327118, -0.028945576399564743, 0.13933099806308746, 0.00887535884976387, -0.10068194568157196, -0.31491246819496155, 0.008573124185204506, -0.06076977401971817, -0.22019942104816437, 0.7574063539505005, -0.023885011672973633, -0.03032863698899746, -0.09081866592168808, -0.21999479830265045, -0.015927009284496307, -0.036705441772937775, -0.3739100992679596, -0.3219774663448334, -0.22457028925418854, 0.28658527135849, 0.016439778730273247, -0.13387544453144073, -0.02570619061589241, -0.1756659895181656, 0.20227625966072083, -0.4427918791770935, -0.2321496307849884, 0.03827298805117607, -0.014646041207015514, -0.29185783863067627, -0.09611192345619202, -0.015357375144958496, -0.33090364933013916, 0.7199273705482483, -0.30961117148399353, -0.7296630144119263, -0.06043913587927818, -0.033590856939554214, -0.0016890106489881873, -0.09928613901138306, 0.5535125732421875, -0.23911906778812408, -0.4198729991912842, -0.05542564019560814, -0.1250380426645279], [-0.007030535489320755, 0.002585566835477948, -0.06726230680942535, -0.018185557797551155, 0.06674815714359283, -0.01605626940727234, 0.05066283047199249, -0.01615876704454422, 0.06724037230014801, 0.03924337401986122, -0.027846554294228554, 0.015514390543103218, 0.02749982848763466, -0.056703947484493256, -0.054282065480947495, -0.017189599573612213, 0.04431482404470444, -0.047879841178655624, 0.09043953567743301, -0.029254555702209473, -0.06220986321568489, 0.03195326030254364, 0.0958079919219017, 0.08558680862188339, -0.011168312281370163, 0.04149375110864639, 0.08608083426952362, 0.018262954428792, 0.06325666606426239, -0.003247581422328949, 0.014586124569177628, -0.10657867044210434, -0.025848835706710815, 0.09129797667264938, 0.02139117196202278, 0.03466116636991501, 0.015529219061136246, -0.07494506239891052, -0.051757972687482834, 0.027174081653356552, 0.016625192016363144, -0.0949629470705986, -0.10574577748775482, 0.01787308230996132, 0.010548844933509827, -0.015570126473903656, -0.03290531784296036, -0.012367814779281616, 0.09170012921094894, 0.09060736745595932, 0.028400447219610214, -0.10513196885585785, -0.006689537316560745, 0.04554709419608116, 0.10875746607780457, 0.0005486495792865753, 0.07099323719739914, -0.04062647745013237, -0.05509509891271591, -0.043778397142887115, 0.07786812633275986, 0.03130108863115311, 0.048239704221487045, -0.09869098663330078], [-0.05016055703163147, 0.27999013662338257, -0.10952732712030411, -0.02585625648498535, -0.09776625037193298, -0.04830552265048027, 0.00025560997892171144, -0.04425537958741188, -0.06720316410064697, -0.192643404006958, -0.10708622634410858, -0.019673556089401245, -0.07698182016611099, -0.2525765299797058, -0.15806515514850616, -0.22072824835777283, -0.007164646405726671, -0.13153162598609924, -0.42879393696784973, -0.05770217999815941, -0.044268399477005005, 0.1182480975985527, -0.1158442571759224, 0.47183290123939514, 0.03808680176734924, -0.004113433882594109, -0.059064142405986786, -0.19941739737987518, -0.039740659296512604, -0.004206430166959763, -0.08497969061136246, -0.1868506520986557, -0.9299629330635071, 0.2295706868171692, -0.08030998706817627, -0.1390063762664795, 0.008155779913067818, -0.13161565363407135, 0.21743246912956238, -0.04823177680373192, -0.11197631806135178, -0.10262947529554367, -0.9465436935424805, 0.5437182784080505, -0.6792653799057007, 0.47652557492256165, -0.03932943940162659, -0.07466205954551697, -0.1608760803937912, -0.09940992295742035, -0.09494291990995407, -0.17903167009353638, -0.7386289834976196, 0.3189675211906433, 0.2108268290758133, -0.026613764464855194, -0.023927727714180946, 0.18190380930900574, -0.027387544512748718, -0.7276397347450256, 0.36735713481903076, -0.05774986371397972, 0.04383038356900215, -0.11414508521556854], [-0.0143983643501997, -0.16066426038742065, -0.031658969819545746, -0.04491608589887619, -0.011146212927997112, 0.46529752016067505, 0.019287439063191414, -0.15359032154083252, -0.1480984389781952, -0.2193613201379776, -0.022710459306836128, -0.09599188715219498, -0.026014363393187523, -0.042064208537340164, 0.02880900725722313, -0.3505094647407532, -0.008000300265848637, -0.12219318747520447, 0.2870629131793976, -0.053512927144765854, -0.061671216040849686, 0.19396263360977173, -0.058739494532346725, 0.08275243639945984, 0.34774285554885864, -0.02914927341043949, 0.00555462809279561, -0.33872196078300476, -0.5930007696151733, -0.019420791417360306, -0.07019659876823425, -0.4092605412006378, 0.08986932784318924, -0.33656996488571167, -0.08240687102079391, -0.2761818766593933, -0.3202942907810211, -0.06345299631357193, -0.6314428448677063, -0.09973081201314926, 0.054967522621154785, -0.10670237243175507, -0.37569934129714966, -0.8667407035827637, 0.5153535604476929, -0.0026068277657032013, -0.040154874324798584, -0.05398547276854515, -0.20224493741989136, 0.03017323650419712, -0.10812626779079437, -0.793094277381897, 0.706745445728302, -0.9216440320014954, 0.37474164366722107, 0.04785216227173805, -0.042631227523088455, -0.19832205772399902, -0.09648995101451874, -0.03353220969438553, -0.4619547128677368, 0.1069091260433197, -0.39012062549591064, -0.11132890731096268], [0.04684475436806679, -0.05681827664375305, -0.014901915565133095, -0.004934370517730713, 0.025501206517219543, 0.025881145149469376, -0.026198312640190125, -0.03043682873249054, -0.06690924614667892, 0.00012449175119400024, 0.06700368225574493, 0.004496418405324221, -0.023222435265779495, -0.07219668477773666, 0.03877229616045952, -0.014884579926729202, -0.04146813973784447, 0.007385551929473877, -0.05637424439191818, 0.042008910328149796, 0.05397040396928787, -0.0015753429615870118, 0.05741481855511665, 0.08815941214561462, -0.006484996527433395, 0.07756903767585754, -0.007432286627590656, -0.04175644740462303, 0.09493167698383331, -0.016061127185821533, -0.046841323375701904, 0.026720181107521057, -0.06684491783380508, -0.007770432159304619, -0.02130901999771595, -0.040325846523046494, 0.03897235170006752, -0.046450424939394, -0.09077685326337814, -0.03469960764050484, -0.048872627317905426, -0.03807077929377556, -0.04559710621833801, -0.030342627316713333, 0.02460550330579281, 0.009079217910766602, -0.0586538165807724, -0.09781844913959503, -0.0852043554186821, -0.10369411110877991, -0.030753720551729202, 0.06891907751560211, -0.042599260807037354, 0.03241925314068794, -0.10394259542226791, 0.03676546737551689, 0.05784831941127777, -0.018385624513030052, 0.001396875362843275, -0.017586268484592438, 0.07711556553840637, 0.12932328879833221, -0.019226424396038055, -0.08247397094964981], [-0.21602368354797363, -0.46271422505378723, 0.025760836899280548, -0.0303590539842844, -0.125233456492424, -0.3752858638763428, 0.005641190335154533, -0.248225599527359, -0.07962939888238907, -0.20459069311618805, -0.08793003112077713, -0.07673746347427368, -0.00517648458480835, -0.9655663371086121, -0.5525535345077515, -0.3071710765361786, -0.06339842826128006, -0.12684300541877747, -0.309262216091156, -0.021400177851319313, -0.06667657941579819, -0.7811887264251709, -0.06541291624307632, 0.39828482270240784, 0.6403756141662598, -0.12113431096076965, -0.06898006051778793, -0.18166325986385345, -0.10524119436740875, -0.040265072137117386, -0.010290823876857758, -0.1422567516565323, 0.28816869854927063, 0.010507508181035519, -0.08856769651174545, 0.027008695527911186, 0.29142075777053833, -0.6732622981071472, -0.8482298254966736, 0.03076956793665886, -0.28660523891448975, -0.06353401392698288, -0.6428805589675903, -0.31138983368873596, 0.14467483758926392, -0.40735718607902527, 0.017261536791920662, -0.17708523571491241, -0.24944528937339783, -0.042890243232250214, 0.031660858541727066, 0.13910682499408722, 0.3823491036891937, 0.17740948498249054, -0.16577233374118805, -0.0024684444069862366, -0.28260284662246704, -0.30766287446022034, -0.11325936019420624, 0.0638914704322815, 0.6161357760429382, 0.5137125849723816, -0.24497473239898682, -0.1837736964225769], [-0.07459727674722672, 0.20256902277469635, -0.21782833337783813, 0.031854916363954544, -0.044674456119537354, -0.5186855792999268, -0.02471328154206276, -0.2009400874376297, -0.05913389474153519, 0.028703082352876663, -0.006227981299161911, 0.025886211544275284, 0.02870495244860649, -0.38627442717552185, -0.2954278290271759, -0.7662596106529236, -0.20888547599315643, 0.042740944772958755, -0.8701551556587219, -0.025455892086029053, -0.030712533742189407, 0.460703045129776, -0.024071289226412773, -0.011651408858597279, 0.7320727109909058, 0.02186279371380806, -0.14735570549964905, -0.07370351254940033, 0.41037100553512573, -0.01884988509118557, -0.0445854552090168, -0.07915493100881577, -0.6717163920402527, -0.6059209704399109, -0.03186305612325668, -0.11550965160131454, 0.32665079832077026, -1.0848807096481323, 0.07170826941728592, -0.036670982837677, 0.2599359452724457, -0.07137084752321243, -0.3121180832386017, 0.6971690058708191, 0.06187388300895691, 0.16735310852527618, -0.02602205239236355, -0.12240046262741089, 0.38046693801879883, 0.029762636870145798, 0.04281005635857582, -0.19308215379714966, -0.282293438911438, 0.041127584874629974, 0.5056645274162292, 0.011911831796169281, -0.18772287666797638, 0.014310956001281738, -0.04967355728149414, -0.8728645443916321, 0.04917529597878456, 0.5162288546562195, -0.14409320056438446, 0.10815335065126419], [0.0777030885219574, -0.05507597327232361, -0.03265207260847092, -0.08791715651750565, -0.01010111067444086, 0.16838780045509338, 0.010618232190608978, -0.21196159720420837, -0.01943223737180233, -0.15140852332115173, -0.039460767060518265, -0.07441797107458115, -0.025037288665771484, -0.5472062230110168, -0.17362000048160553, -0.23927436769008636, -0.07622810453176498, -0.04099203273653984, -0.40722522139549255, -0.008899390697479248, 0.05754935368895531, 0.3563879132270813, -0.09309072047472, 0.13197290897369385, -0.4618260860443115, -0.045331042259931564, 0.10412737727165222, -0.302764892578125, -0.17794567346572876, -0.011361289769411087, -0.01474447175860405, 0.4253425598144531, -0.37143760919570923, 0.21935716271400452, -0.11751675605773926, -1.1724998950958252, -0.198257178068161, -0.09882384538650513, 0.8875399231910706, 0.04563959687948227, -0.004242830444127321, -0.03164045885205269, -0.3413408398628235, 0.329521119594574, -0.2931644320487976, 0.07021184265613556, -0.0977514386177063, -0.10371083766222, -0.19876447319984436, -0.08434418588876724, -0.03240369260311127, -0.6827715635299683, -0.5901496410369873, 0.3262476623058319, -1.4623923301696777, -0.02020040713250637, -0.08163242787122726, 0.6590602993965149, -0.031721439212560654, -0.14898379147052765, -0.5166780948638916, -0.3308483362197876, 0.14705754816532135, -0.3561927378177643], [-0.02468099445104599, -0.20418956875801086, -0.05871361121535301, -0.09017350524663925, -0.009492111392319202, -0.14136552810668945, -0.012679009698331356, -0.06427738815546036, -0.270597368478775, -0.18126952648162842, -0.09723150730133057, -0.06755422800779343, -0.0965929701924324, -0.12492350488901138, -0.2103848159313202, -0.08569597452878952, -0.061999354511499405, -0.08059391379356384, -0.1126260757446289, -0.021917665377259254, -0.07386729121208191, 0.11510596424341202, -0.07053162157535553, 0.4775625765323639, -0.3605676293373108, -0.07248235493898392, -0.05706663802266121, -0.3047117590904236, 0.3122195601463318, -0.030814969912171364, -0.037517886608839035, 0.12606368958950043, -0.44076433777809143, -0.41207489371299744, -0.020373109728097916, -0.740710973739624, -0.09457413852214813, 0.02562478557229042, 0.11150804162025452, -0.09445164352655411, -0.058327075093984604, -0.07892348617315292, -0.9960119724273682, -0.8111327886581421, -0.3610154986381531, 0.31084197759628296, -0.04983057454228401, -0.05993158742785454, -0.07844228297472, -0.06612516939640045, -0.06584516912698746, -0.10568685829639435, -0.7901716232299805, -0.2763848900794983, -0.18155671656131744, -0.09739730507135391, -0.09300081431865692, 0.24659690260887146, -0.010461777448654175, -0.7003598213195801, 0.2960236966609955, -0.37742504477500916, 0.23407046496868134, 0.007716794032603502], [-0.1877691000699997, 0.4886476397514343, -0.07015210390090942, -0.05733634904026985, -0.06660305708646774, -0.3628488779067993, -0.024451011791825294, -0.05161374434828758, -0.014200704172253609, -0.1476486772298813, -0.03046216443181038, -0.09099328517913818, -0.039212122559547424, -0.30636274814605713, 0.6105326414108276, -0.23709000647068024, -0.053318366408348083, -0.11730828881263733, -0.2638600766658783, -0.026040343567728996, -0.057226236909627914, -0.4415404200553894, -0.04833482205867767, -0.10378383100032806, 0.3579312562942505, -0.039151325821876526, 0.09254307299852371, -0.49513182044029236, 0.5806655287742615, -0.0381326898932457, -0.010096321813762188, -0.31106311082839966, -0.4924987554550171, -0.4768998920917511, -0.04206953942775726, -0.08799558877944946, 0.12648358941078186, -0.031001754105091095, -0.2114860713481903, -0.05619921162724495, -0.08425743877887726, -0.08591735363006592, -0.11155097186565399, -0.07497598975896835, -0.2003442496061325, 0.8648914694786072, -0.09242454916238785, -0.05170350894331932, -0.04217248782515526, -0.07523702830076218, -0.03102392889559269, -0.05415891483426094, -0.8687810301780701, -0.7233415246009827, -0.11446882784366608, -0.06978651881217957, -0.10639636963605881, 0.17716941237449646, -0.010676517151296139, -0.5137867331504822, -0.773439884185791, -0.15007038414478302, 0.6803524494171143, -0.07837113738059998], [0.019085261970758438, -0.038557253777980804, -0.04552919790148735, 0.03689316287636757, 0.035224463790655136, 0.042931366711854935, 0.031862784177064896, 0.03071044757962227, 0.021952833980321884, 0.025171685963869095, -0.00287710502743721, -0.020029712468385696, -0.04791262373328209, 0.0033917203545570374, 0.04174754396080971, -0.04789140447974205, 0.048243772238492966, -0.04152119159698486, -0.012382924556732178, 0.01166297122836113, -0.046769607812166214, 0.020022187381982803, -0.04641475901007652, -0.004169918596744537, 0.0292540080845356, 0.040418196469545364, 0.013387862592935562, 0.0013706684112548828, -0.019672727212309837, 0.015492010861635208, 0.04110792651772499, -0.008376073092222214, 0.00631631538271904, -0.00443943589925766, -0.00020465999841690063, 0.0329071544110775, 0.014121238142251968, -0.03441975265741348, -0.04057445377111435, -0.03898119926452637, 0.007065035402774811, 0.010169528424739838, 0.045314524322748184, -0.011909745633602142, 0.023935403674840927, 0.04662518575787544, -0.016866303980350494, -0.01792687177658081, 0.00148078054189682, -0.0143478624522686, 0.003914631903171539, -0.045871999114751816, -0.02496969699859619, -0.026428306475281715, -0.02790543995797634, 0.00019211694598197937, -0.038008641451597214, -0.010981429368257523, -0.03917285054922104, -0.048013459891080856, 0.007786490023136139, 0.003977466374635696, 0.015684936195611954, 0.028054583817720413], [-0.014861654490232468, 0.05217347294092178, 0.09198153018951416, -0.09548668563365936, 0.10880729556083679, 0.09036407619714737, 0.11072270572185516, 0.07161226123571396, -0.06231066584587097, -0.0041800737380981445, -0.06218802183866501, 0.03066563978791237, 0.0027131810784339905, -0.04187775403261185, -0.019017834216356277, -0.04479522630572319, 0.03490682318806648, -0.004183899611234665, 0.05621476471424103, -0.04115677997469902, 0.10220149159431458, -0.021701116114854813, -0.0774577409029007, 0.06015168875455856, -0.02216787450015545, 0.027162011712789536, 0.056008219718933105, -0.04424241557717323, 0.0907919779419899, 0.00018040090799331665, -0.03537917137145996, -0.08514698594808578, -0.057245999574661255, 0.08387408405542374, -0.03287314996123314, 0.09363560378551483, -0.04310460016131401, 0.058413732796907425, -0.04022185876965523, -0.028392864391207695, -0.028559362515807152, -0.10678792744874954, -0.04824710264801979, -0.04107192903757095, 0.02873646654188633, 0.017336908727884293, -0.016421442851424217, -0.07724256068468094, 0.07783897966146469, 0.029032589867711067, 0.036339450627565384, -0.01573561504483223, -0.04640582948923111, -0.009039152413606644, -0.10516408085823059, 0.010044921189546585, 0.09804394841194153, 0.03691990301012993, -0.035852137953042984, 0.008836161345243454, 0.05343352258205414, 0.04904787987470627, 0.07065343111753464, -0.0832967460155487], [-0.2099883109331131, 0.35605525970458984, -0.05501336231827736, -0.08308714628219604, -0.06257940828800201, 0.16077324748039246, -0.027470113709568977, -0.036057449877262115, -0.30427086353302, -0.22612829506397247, -0.10048866271972656, -0.03893176093697548, -0.08544785529375076, -0.15169797837734222, 0.6175262331962585, -0.22667503356933594, -0.06280402839183807, -0.11666078865528107, -0.17029282450675964, -0.06357128918170929, -0.06931950151920319, 0.2957719564437866, -0.09254351258277893, 0.4099242389202118, 0.3214699327945709, -0.04491109400987625, -0.052753690630197525, -0.6013282537460327, -0.6656039953231812, -0.04176773875951767, -0.08031672239303589, -0.021480286493897438, -0.22382576763629913, 0.3505401313304901, -0.004720371216535568, -0.21570731699466705, -0.2461838275194168, -0.07654736936092377, -0.21217408776283264, -0.0421045646071434, -0.36404240131378174, -0.09204111993312836, -1.2864450216293335, 0.8706186413764954, -0.31252264976501465, 0.4345245957374573, -0.054523251950740814, -0.08361104875802994, -0.07444293797016144, -0.02514497935771942, -0.06658260524272919, -0.16216100752353668, -0.06841785460710526, 0.33392757177352905, 0.009651266038417816, -0.007060069125145674, -0.06316839903593063, -0.14535950124263763, 0.0038871706929057837, -0.2656432092189789, -0.6086788773536682, -0.09899535030126572, -0.22088265419006348, -0.20050205290317535], [-0.10330389440059662, 0.2818281352519989, -0.05641670152544975, -0.0898042768239975, -0.013178301975131035, 0.31701013445854187, -0.04849613085389137, -0.01826842874288559, -0.2648722529411316, -0.23122413456439972, -0.09106745570898056, -0.06938515603542328, -0.08469849824905396, 0.17546989023685455, 0.04698185250163078, -0.22316710650920868, -0.007364356890320778, -0.16337768733501434, 0.05858534201979637, -0.05528411269187927, -0.026899239048361778, 0.39707958698272705, -0.02809920534491539, -0.06968867033720016, 0.5872183442115784, -0.014676499180495739, -0.03926580026745796, -0.11705154180526733, -0.3895051181316376, -0.013765595853328705, -0.06442000716924667, 0.3358873724937439, 0.027474481612443924, 0.11184056103229523, -0.09100598841905594, 0.15640531480312347, -0.06710509210824966, 0.09936543554067612, -0.06849393248558044, -0.07608822733163834, -0.14004814624786377, -0.08160071074962616, -0.7030666470527649, -0.5634250044822693, -0.22409863770008087, -0.03630241006612778, -0.06159541383385658, -0.08942797034978867, -0.19732169806957245, -0.05601632967591286, -0.04949742928147316, -0.7007156610488892, 0.6513836979866028, -0.09064368158578873, 0.27475863695144653, -0.00993789080530405, -0.028445778414607048, -0.2440320998430252, -0.02686374820768833, 0.1472935825586319, -0.04115671664476395, 0.38035812973976135, 0.45914551615715027, -0.09001506119966507], [-0.07428483664989471, 0.24492013454437256, -0.08318781107664108, -0.10195329785346985, -0.04130033776164055, -0.17988747358322144, -0.02110114134848118, -0.05128021165728569, -0.11083206534385681, -0.20140808820724487, -0.07218203693628311, -0.030177948996424675, -0.061614230275154114, 0.018151752650737762, -0.32511106133461, -0.23354925215244293, -0.02792227268218994, -0.15580534934997559, 0.24212795495986938, -0.03775767236948013, -0.08352484554052353, -0.3326576054096222, -0.11447826772928238, 0.13872681558132172, 0.14508512616157532, -0.05362633615732193, 0.004611771088093519, 0.42607808113098145, -0.359557569026947, -0.049371350556612015, -0.07828210294246674, -0.20779311656951904, 0.8357065320014954, -0.30726322531700134, -0.07919026166200638, 0.5360466241836548, -0.09016487002372742, 0.08128954470157623, 0.06153824180364609, -0.041877686977386475, -0.14319588243961334, -0.035238031297922134, -0.16968920826911926, -0.15560178458690643, -0.1671987920999527, -0.7296515107154846, -0.0816875472664833, -0.08265988528728485, -0.22244030237197876, -0.09924866259098053, -0.07879958301782608, -0.244663804769516, 0.9467108249664307, 0.06451144069433212, 0.5611568689346313, -0.03713206946849823, -0.059473857283592224, -0.17145077884197235, -0.009814443998038769, 0.2082451432943344, -0.36567768454551697, -0.2933727502822876, 0.013051934540271759, -0.11285995692014694], [-0.023117531090974808, 0.0677177757024765, 0.08356259018182755, -0.1037730723619461, 0.05208973586559296, 0.09904541075229645, -0.0015007146866992116, -0.07295484095811844, -0.08416673541069031, -0.0033890828490257263, -0.04756516218185425, -0.026998372748494148, -0.010206341743469238, -0.0804481953382492, 0.04615110158920288, -0.03354687988758087, -0.01620602235198021, 0.041529331356287, -0.007817774079740047, 0.017169881612062454, -0.02300233580172062, -0.02996751293540001, -0.06677181273698807, 0.05791335552930832, 0.04250819608569145, -0.013555401004850864, 0.02524525113403797, -0.020294392481446266, 0.08481679111719131, 0.029838014394044876, -0.02639641799032688, 0.0003285054408479482, -0.09091547131538391, -0.024427346885204315, -0.054032474756240845, -0.05245665833353996, -0.012096475809812546, -0.014970705844461918, -0.08427175879478455, 0.04380502924323082, 0.03333146497607231, -0.0988646075129509, -0.06322863698005676, -0.013345398008823395, 0.090845488011837, 0.03884618356823921, -0.028537606820464134, -0.13475899398326874, -0.09514907747507095, -0.10083352029323578, -0.020821237936615944, -0.05953686311841011, -0.026890719309449196, -0.0384485125541687, -0.050912994891405106, 0.0028803832828998566, 0.012625050731003284, -0.10549956560134888, 0.018635960295796394, 0.023795079439878464, 0.04794406145811081, 0.11376075446605682, 0.039571549743413925, -0.06579197943210602], [-0.024837439879775047, 0.1357731819152832, -0.05280861258506775, -0.047128502279520035, -0.018971657380461693, -0.08149123191833496, -0.015415492467582226, -0.03490082547068596, -0.15785712003707886, -0.17794054746627808, -0.09097284078598022, -0.05956006050109863, -0.08776463568210602, -0.029744122177362442, 0.10760664939880371, -0.058015335351228714, -0.02027714252471924, -0.09520113468170166, -0.022532999515533447, -0.05708920955657959, -0.022730126976966858, 0.1386459320783615, -0.03777474910020828, 0.2716291844844818, 0.2389279007911682, -0.033256229013204575, 0.021684806793928146, -0.11182829737663269, -0.2776987552642822, -0.02009805478155613, -0.0360894538462162, 0.07453078776597977, -0.24540938436985016, 0.06526827067136765, -0.0883312001824379, -0.040015291422605515, -0.13602562248706818, -0.023631740361452103, 0.15150365233421326, -0.0480676144361496, 0.02300562523305416, -0.021096695214509964, -0.6321402788162231, 0.09005732089281082, -0.21448706090450287, -0.38161584734916687, -0.048300180584192276, 0.0015952582471072674, -0.10878501832485199, -0.026092438027262688, -0.02621404267847538, -0.20500750839710236, 0.6280518174171448, 0.4854421317577362, 0.25211331248283386, -0.06191829591989517, -0.01741624064743519, 0.03785637766122818, -0.016543393954634666, -0.20756912231445312, -0.7337395548820496, -0.25554198026657104, 0.04320346936583519, -0.14923372864723206], [-0.19422218203544617, 0.006411799229681492, -0.09485898911952972, 0.014696385711431503, -0.045458193868398666, 0.13660092651844025, -0.015616234391927719, -0.0019274813821539283, -0.10794012993574142, -0.0210754182189703, 0.016619527712464333, 0.015156242065131664, -0.07091519981622696, -0.2857983410358429, -0.2623654901981354, -0.2889106273651123, -0.03258085995912552, -0.11936040967702866, -0.19906951487064362, -0.08775453269481659, -0.08636008203029633, -0.6346328258514404, -0.11467500776052475, -0.619198739528656, -0.48083969950675964, -0.042804621160030365, -0.08304744213819504, -0.12190024554729462, 0.5801078677177429, 0.004912875592708588, 0.014809314161539078, -0.0032172021456062794, 0.2977645695209503, -0.8479340076446533, -0.0928688570857048, 0.11125800013542175, -0.31023335456848145, 0.15501584112644196, 0.1537935584783554, 0.06082009896636009, -0.06592408567667007, 0.01680903136730194, -0.47535431385040283, -0.24827903509140015, -0.005095965228974819, 0.09773116558790207, -0.062420349568128586, -0.032139070332050323, -0.23543567955493927, -0.02219831384718418, -0.045309532433748245, -0.1214444488286972, 0.7294277548789978, -0.6529625058174133, -0.7599402070045471, -0.03486160188913345, 0.013418583199381828, 0.029321013018488884, 0.06010642275214195, -0.4625057280063629, -0.4070465862751007, -0.5056415796279907, -0.1647285372018814, -0.10981950163841248], [-0.08745814859867096, 0.682641863822937, -0.08159935474395752, -0.07040588557720184, -0.07456523925065994, 0.1759350597858429, -0.04391825571656227, -0.026610376313328743, -0.10639511048793793, -0.22407574951648712, -0.02724539116024971, -0.08330575376749039, -0.0957031324505806, 0.15858110785484314, 0.3751542866230011, -0.38849934935569763, 0.00030293926829472184, -0.164271280169487, 0.049657128751277924, -0.023118827491998672, -0.1014472171664238, 0.04064694419503212, -0.017399510368704796, -0.00601178128272295, 0.5267282128334045, -0.07927075773477554, 0.006511773448437452, 0.03491956740617752, -0.5944684743881226, 0.04594812169671059, -0.0705680102109909, 0.23199822008609772, -0.2711166739463806, 0.18059003353118896, -0.016009198501706123, -0.276546835899353, -0.07274160534143448, -0.07266154140233994, -0.25766581296920776, -0.011979985982179642, -0.06790278851985931, -0.07956001162528992, -0.5582647919654846, -0.8001890778541565, 0.08704753965139389, -0.12194942682981491, -0.022075537592172623, -0.031561803072690964, -0.18620698153972626, -0.035868044942617416, -0.06817938387393951, -0.3214482367038727, 0.0967072993516922, 0.14559410512447357, 0.22560130059719086, -0.05417540669441223, -0.023386212065815926, -0.2632911801338196, -0.016065340489149094, 0.051292452961206436, -1.0046794414520264, 0.1263323575258255, -0.3606838881969452, -0.06893652677536011], [-0.0907563716173172, 0.16478227078914642, -0.028967726975679398, -0.03757290542125702, -0.009174438193440437, 0.08029317855834961, -0.011531580239534378, 0.007032599300146103, -0.17398329079151154, -0.17279155552387238, -0.0474308542907238, -0.0633985698223114, -0.07330574095249176, 0.08334428071975708, 0.11171216517686844, -0.08633147180080414, -0.011351317167282104, -0.10781927406787872, 0.05376892164349556, -0.061409842222929, -0.09276451915502548, 0.21535584330558777, -0.11971677839756012, 0.1669592559337616, 0.48976317048072815, -0.051658034324645996, -0.08249707520008087, 0.2856658399105072, -0.2764109671115875, 0.045134950429201126, -0.05323188751935959, 0.07842839509248734, -0.1834363043308258, 0.07527285069227219, -0.04649217426776886, 0.07017318904399872, -0.06358328461647034, 0.045138146728277206, -0.064842090010643, -0.0427691675722599, -0.15227992832660675, -0.06633283197879791, -0.8755856156349182, -0.10862039029598236, -0.23745086789131165, 0.07443443685770035, -0.01866658218204975, 0.0030546924099326134, -0.15359792113304138, -0.08681362867355347, -0.04210662469267845, -0.2823179364204407, 0.10537654906511307, 0.46388328075408936, 0.41432276368141174, -0.06216330826282501, -0.10077414661645889, -0.1542191207408905, -0.028273509815335274, -0.00969063863158226, -0.46199753880500793, 0.04494501277804375, -0.09714315086603165, -0.1821148544549942], [-0.045160483568906784, -0.05701778829097748, -0.06454195082187653, -0.033085428178310394, 0.016985803842544556, 0.09108299016952515, -0.005330914631485939, -0.0493023544549942, -0.08796912431716919, -0.022872840985655785, -0.09214099496603012, -0.06866781413555145, -0.025503909215331078, -0.0523407980799675, -0.0449841134250164, 0.029364239424467087, -0.019023053348064423, -0.08569631725549698, -0.0939185842871666, 0.024750541895627975, -0.07794830203056335, 0.024476977065205574, 0.07819697260856628, 0.027913009747862816, 0.04849822446703911, 0.007607790641486645, -0.018078260123729706, 0.14028632640838623, 0.05064874142408371, 0.037279341369867325, 0.02433082088828087, -0.0813266783952713, -0.017285706475377083, 0.06778287887573242, 0.015625856816768646, -0.02536560222506523, -0.0014704838395118713, -0.024216303601861, -0.0941801443696022, 0.03668418154120445, -0.03138148784637451, -0.01448213029652834, -0.02852206863462925, 0.022888708859682083, -0.10435505211353302, 0.03864702954888344, -0.10413935780525208, -0.026770418509840965, 0.031869228929281235, -0.04024822264909744, 0.017966601997613907, -0.06696335971355438, 0.0033100470900535583, -0.024190044030547142, -0.06637180596590042, -0.002538274973630905, -0.13153567910194397, -0.025668147951364517, -0.10371149331331253, 0.04799652472138405, 0.021248435601592064, 0.038590025156736374, 0.09410975128412247, -0.011352079920470715], [-0.2030598521232605, 0.23012346029281616, -0.007741658482700586, -0.02799931727349758, -0.07996682822704315, 0.24695932865142822, -0.08336255699396133, -0.045946210622787476, 0.05765243619680405, -0.23580113053321838, -0.01879356987774372, -0.08413923531770706, -0.050010934472084045, -0.21112561225891113, 0.3931712508201599, -0.27932384610176086, -0.07308667153120041, -0.18335473537445068, -0.30129048228263855, -0.01583097130060196, -0.02203025296330452, 0.16318316757678986, -0.01764051988720894, 0.18792925775051117, -0.6143466830253601, -0.02717876434326172, 0.00345413526520133, 0.3219882845878601, -0.7073249816894531, -0.04878101497888565, -0.08938029408454895, 0.12319467216730118, -0.8753145337104797, -0.03184099495410919, -0.09576940536499023, -0.3137710988521576, -0.2589179277420044, -0.09880509227514267, 0.012386074289679527, 0.03798865154385567, -0.1917531043291092, -0.010609092190861702, -0.33429133892059326, 0.04420476779341698, 0.33536162972450256, -0.3823414146900177, -0.0912206843495369, -0.06891314685344696, -0.18758440017700195, -0.020153295248746872, 0.009728074073791504, -0.30124029517173767, 0.2275255024433136, -0.034816425293684006, -0.7984963655471802, -0.016327593475580215, -0.060647912323474884, 0.4722940921783447, -0.011716083623468876, 0.07143036276102066, -0.17354716360569, 0.40947556495666504, 0.0985037237405777, -0.27010881900787354], [-0.157645121216774, 0.2818988263607025, -0.06371286511421204, -0.019431207329034805, -0.013344356790184975, -0.21839575469493866, 0.021637162193655968, 0.0049084764905273914, -0.27115991711616516, -0.1638192981481552, -0.0777287483215332, -0.03210585191845894, -0.011004187166690826, 0.12911240756511688, -0.10960756242275238, -0.2892991304397583, -0.04269750788807869, -0.08154405653476715, 0.1079791858792305, -0.013489725068211555, -0.07977735996246338, 0.286433607339859, -0.0995817631483078, -0.23736658692359924, 0.4196259081363678, -0.07537129521369934, -0.02350655198097229, -0.2525854706764221, -0.10816352814435959, -0.043290019035339355, -0.0060903700068593025, 0.0692463293671608, 0.7660092115402222, -0.7134385108947754, -0.07219603657722473, 0.6345881819725037, 0.07189179211854935, -0.08195168524980545, -0.5548161268234253, -0.0079575190320611, -0.23443321883678436, -0.054441146552562714, -0.8966063261032104, 1.1595523357391357, -0.4920017421245575, -0.2355973869562149, -0.06546854227781296, -0.03169949725270271, -0.17729079723358154, -0.060633279383182526, -0.024824321269989014, -0.4613969027996063, -0.35457977652549744, 0.17669105529785156, 0.6010103821754456, -0.07558286935091019, -0.009808069095015526, -0.17853689193725586, -0.046271782368421555, 0.3980494439601898, -0.48645254969596863, 0.0006308238371275365, 0.16700659692287445, -0.24230216443538666], [-0.14332526922225952, -0.5101162195205688, -0.04341515153646469, -0.021758021786808968, -0.014155515469610691, -0.10926951467990875, -0.07467994093894958, -0.08594022691249847, -0.38328638672828674, -0.14305561780929565, -0.011844636872410774, -0.025183293968439102, -0.011407185345888138, -0.8415126204490662, 0.0038098362274467945, -0.3931851089000702, -0.04635866358876228, -0.10431703180074692, 0.08638619631528854, 0.011152993887662888, -0.10183913260698318, 0.48340392112731934, -0.07268111407756805, 0.1550493985414505, 0.15468162298202515, -0.07058226317167282, -0.037489473819732666, -0.5131778717041016, -0.4340536594390869, -0.046749234199523926, -0.06135782599449158, 0.04274851456284523, 0.503059446811676, -0.141195148229599, -0.06313014030456543, -0.1851242184638977, -0.01991494558751583, -0.34114307165145874, -0.6057339906692505, -0.01885230652987957, -0.2205212563276291, -0.01184664573520422, -0.4465829133987427, 0.671239972114563, 0.7847283482551575, 0.36629626154899597, -0.10165808349847794, -0.12019805610179901, -0.11531996726989746, -0.07096278667449951, 0.01734396442770958, -0.06948573142290115, -0.6199933886528015, 0.394802987575531, -0.517055869102478, -0.022344863042235374, -0.06628181040287018, 0.7122552394866943, 